{"learner":{"attributes":{"scikit_learn":"{\"_estimator_type\": \"classifier\"}"},"feature_names":["hemo","htn","age","bp","pe","bgr"],"feature_types":["int","int","int","int","int","int"],"gradient_booster":{"model":{"gbtree_model_param":{"num_parallel_tree":"1","num_trees":"300"},"iteration_indptr":[0,3,6,9,12,15,18,21,24,27,30,33,36,39,42,45,48,51,54,57,60,63,66,69,72,75,78,81,84,87,90,93,96,99,102,105,108,111,114,117,120,123,126,129,132,135,138,141,144,147,150,153,156,159,162,165,168,171,174,177,180,183,186,189,192,195,198,201,204,207,210,213,216,219,222,225,228,231,234,237,240,243,246,249,252,255,258,261,264,267,270,273,276,279,282,285,288,291,294,297,300],"tree_info":[0,1,2,0,1,2,0,1,2,0,1,2,0,1,2,0,1,2,0,1,2,0,1,2,0,1,2,0,1,2,0,1,2,0,1,2,0,1,2,0,1,2,0,1,2,0,1,2,0,1,2,0,1,2,0,1,2,0,1,2,0,1,2,0,1,2,0,1,2,0,1,2,0,1,2,0,1,2,0,1,2,0,1,2,0,1,2,0,1,2,0,1,2,0,1,2,0,1,2,0,1,2,0,1,2,0,1,2,0,1,2,0,1,2,0,1,2,0,1,2,0,1,2,0,1,2,0,1,2,0,1,2,0,1,2,0,1,2,0,1,2,0,1,2,0,1,2,0,1,2,0,1,2,0,1,2,0,1,2,0,1,2,0,1,2,0,1,2,0,1,2,0,1,2,0,1,2,0,1,2,0,1,2,0,1,2,0,1,2,0,1,2,0,1,2,0,1,2,0,1,2,0,1,2,0,1,2,0,1,2,0,1,2,0,1,2,0,1,2,0,1,2,0,1,2,0,1,2,0,1,2,0,1,2,0,1,2,0,1,2,0,1,2,0,1,2,0,1,2,0,1,2,0,1,2,0,1,2,0,1,2,0,1,2,0,1,2,0,1,2,0,1,2,0,1,2,0,1,2,0,1,2,0,1,2,0,1,2,0,1,2,0,1,2,0,1,2,0,1,2],"trees":[{"base_weights":[6.237393E-1,4.382199E-1,-4.551729E-2,-2.8985512E-1,3.902655E-1,-4.1308096E-1,3.6734694E-1,-4.812835E-1,3.1034482E-1,-5.545287E-1,3.1034482E-1,-1.07288365E-8,-1.7821784E-1],"categories":[],"categories_nodes":[],"categories_segments":[],"categories_sizes":[],"default_left":[0,0,0,0,0,0,0,0,0,0,0,0,0],"id":0,"left_children":[1,-1,3,5,-1,7,-1,9,-1,11,-1,-1,-1],"loss_changes":[8.029436E1,0E0,2.6877993E1,1.3381653E1,0E0,6.8712883E0,0E0,7.4940615E0,0E0,1.3176918E0,0E0,0E0,0E0],"parents":[2147483647,0,0,2,2,3,3,5,5,7,7,9,9],"right_children":[2,-1,4,6,-1,8,-1,10,-1,12,-1,-1,-1],"split_conditions":[6.6E1,4.382199E-1,6.5E1,1E0,3.902655E-1,4E0,3.6734694E-1,1E0,3.1034482E-1,1.5E1,3.1034482E-1,-1.07288365E-8,-1.7821784E-1],"split_indices":[0,0,5,1,0,3,0,4,0,2,0,0,0],"split_type":[0,0,0,0,0,0,0,0,0,0,0,0,0],"sum_hessian":[1.4222221E2,6.2666664E1,7.955555E1,6.799999E1,1.1555555E1,6.3555553E1,4.444444E0,6.133333E1,2.222222E0,5.9111107E1,2.222222E0,3.9999998E0,5.5111107E1],"tree_param":{"num_deleted":"0","num_feature":"6","num_nodes":"13","size_leaf_vector":"1"}},{"base_weights":[-7.3079914E-1],"categories":[],"categories_nodes":[],"categories_segments":[],"categories_sizes":[],"default_left":[0],"id":1,"left_children":[-1],"loss_changes":[0E0],"parents":[2147483647],"right_children":[-1],"split_conditions":[-2.1923976E-1],"split_indices":[0],"split_type":[0],"sum_hessian":[1.4222221E2],"tree_param":{"num_deleted":"0","num_feature":"6","num_nodes":"1","size_leaf_vector":"1"}},{"base_weights":[1.07059695E-1,-2.21466E-1,7.737931E-1,1.0289855E0,-2.0707966E-1,1.151463E0,-1.836735E-1,1.2192513E0,-1.5517244E-1,1.2920518E0,-1.5517244E-1,1.2413793E-1,3.9558545E-1],"categories":[],"categories_nodes":[],"categories_segments":[],"categories_sizes":[],"default_left":[0,0,0,0,0,0,0,0,0,0,0,0,0],"id":2,"left_children":[1,-1,3,5,-1,7,-1,9,-1,11,-1,-1,-1],"loss_changes":[8.1287865E1,0E0,3.0807175E1,1.4574921E1,0E0,7.9330826E0,0E0,8.548325E0,0E0,8.568802E-1,0E0,0E0,0E0],"parents":[2147483647,0,0,2,2,3,3,5,5,7,7,9,9],"right_children":[2,-1,4,6,-1,8,-1,10,-1,12,-1,-1,-1],"split_conditions":[6.6E1,-2.21466E-1,6.5E1,1E0,-2.0707966E-1,4E0,-1.836735E-1,1E0,-1.5517244E-1,1.2E1,-1.5517244E-1,1.2413793E-1,3.9558545E-1],"split_indices":[0,0,5,1,0,3,0,4,0,2,0,0,0],"split_type":[0,0,0,0,0,0,0,0,0,0,0,0,0],"sum_hessian":[1.4222221E2,6.2666664E1,7.955555E1,6.799999E1,1.1555555E1,6.3555553E1,4.444444E0,6.133333E1,2.222222E0,5.9111107E1,2.222222E0,2.222222E0,5.6888885E1],"tree_param":{"num_deleted":"0","num_feature":"6","num_nodes":"13","size_leaf_vector":"1"}},{"base_weights":[4.6941957E-1,2.9680905E-1,-2.2734107E-2,-2.2555102E-1,2.701384E-1,-3.3551115E-1,2.6640075E-1,-3.9930898E-1,2.3684655E-1,-4.690054E-1,2.3684655E-1,-9.6440025E-2,-1.9671421E-1],"categories":[],"categories_nodes":[],"categories_segments":[],"categories_sizes":[],"default_left":[0,0,0,0,0,0,0,0,0,0,0,0,0],"id":3,"left_children":[1,-1,3,5,-1,7,-1,9,-1,11,-1,-1,-1],"loss_changes":[3.7625317E1,0E0,1.4521112E1,8.07268E0,0E0,4.514973E0,0E0,5.01332E0,0E0,1.2646723E0,0E0,0E0,0E0],"parents":[2147483647,0,0,2,2,3,3,5,5,7,7,9,9],"right_children":[2,-1,4,6,-1,8,-1,10,-1,12,-1,-1,-1],"split_conditions":[6.6E1,2.9680905E-1,6.5E1,1E0,2.701384E-1,4E0,2.6640075E-1,1E0,2.3684655E-1,8.7E1,2.3684655E-1,-9.6440025E-2,-1.9671421E-1],"split_indices":[0,0,5,1,0,3,0,4,0,0,0,0,0],"split_type":[0,0,0,0,0,0,0,0,0,0,0,0,0],"sum_hessian":[1.4594785E2,7.0478935E1,7.546891E1,6.2495052E1,1.2973861E1,5.7514378E1,4.9806743E0,5.503826E1,2.4761167E0,5.2562145E1,2.4761167E0,3.0881271E1,2.1680874E1],"tree_param":{"num_deleted":"0","num_feature":"6","num_nodes":"13","size_leaf_vector":"1"}},{"base_weights":[-6.509539E-1],"categories":[],"categories_nodes":[],"categories_segments":[],"categories_sizes":[],"default_left":[0],"id":4,"left_children":[-1],"loss_changes":[0E0],"parents":[2147483647],"right_children":[-1],"split_conditions":[-1.9528617E-1],"split_indices":[0],"split_type":[0],"sum_hessian":[1.2208979E2],"tree_param":{"num_deleted":"0","num_feature":"6","num_nodes":"1","size_leaf_vector":"1"}},{"base_weights":[8.03473E-2,-1.9738907E-1,5.5072993E-1,7.153624E-1,-1.8509865E-1,7.928872E-1,-1.6398105E-1,8.365935E-1,-1.40206E-1,8.8294053E-1,-1.40206E-1,2.7151975E-1,1.1175843E-1],"categories":[],"categories_nodes":[],"categories_segments":[],"categories_sizes":[],"default_left":[0,0,0,0,0,0,0,0,0,0,0,0,0],"id":5,"left_children":[1,-1,3,5,-1,7,-1,9,-1,11,-1,-1,-1],"loss_changes":[4.8537376E1,0E0,1.6835634E1,7.7908287E0,0E0,4.31596E0,0E0,4.5964317E0,0E0,4.2171478E-1,0E0,0E0,0E0],"parents":[2147483647,0,0,2,2,3,3,5,5,7,7,9,9],"right_children":[2,-1,4,6,-1,8,-1,10,-1,12,-1,-1,-1],"split_conditions":[6.6E1,-1.9738907E-1,6.5E1,1E0,-1.8509865E-1,4E0,-1.6398105E-1,1E0,-1.40206E-1,6.5E1,-1.40206E-1,2.7151975E-1,1.1175843E-1],"split_indices":[0,0,5,1,0,3,0,4,0,2,0,0,0],"split_type":[0,0,0,0,0,0,0,0,0,0,0,0,0],"sum_hessian":[1.3771751E2,5.343981E1,8.427771E1,7.4203476E1,1.0074236E1,7.025904E1,3.9444304E0,6.8228966E1,2.0300798E0,6.619888E1,2.0300798E0,6.2707455E1,3.4914305E0],"tree_param":{"num_deleted":"0","num_feature":"6","num_nodes":"13","size_leaf_vector":"1"}},{"base_weights":[3.904425E-1,2.3680641E-1,-5.4613966E-3,-1.8517429E-1,6.824787E-1,-2.853856E-1,2.147353E-1,7.5856335E-2,2.2067438E-1,-3.4618533E-1,1.9363664E-1,-4.1352192E-1,1.9363664E-1,3.412497E-2,-1.3823359E-1],"categories":[],"categories_nodes":[],"categories_segments":[],"categories_sizes":[],"default_left":[0,0,0,0,0,0,0,0,0,0,0,0,0,0,0],"id":6,"left_children":[1,-1,3,5,7,9,-1,-1,-1,11,-1,13,-1,-1,-1],"loss_changes":[2.1536922E1,0E0,8.709155E0,5.2449236E0,1.469202E-1,3.107316E0,0E0,0E0,0E0,3.5043E0,0E0,1.1988406E0,0E0,0E0,0E0],"parents":[2147483647,0,0,2,2,3,3,4,4,5,5,9,9,11,11],"right_children":[2,-1,4,6,8,10,-1,-1,-1,12,-1,14,-1,-1,-1],"split_conditions":[6.6E1,2.3680641E-1,6.4E1,1E0,3.3E1,4E0,2.147353E-1,7.5856335E-2,2.2067438E-1,1E0,1.9363664E-1,1.5E1,1.9363664E-1,3.412497E-2,-1.3823359E-1],"split_indices":[0,0,5,1,2,3,0,0,0,4,0,2,0,0,0],"split_type":[0,0,0,0,0,0,0,0,0,0,0,0,0,0,0],"sum_hessian":[1.3534196E2,6.691983E1,6.8422134E1,5.4829636E1,1.3592501E1,4.995636E1,4.873276E0,2.129056E0,1.1463445E1,4.748301E1,2.4733524E0,4.5009655E1,2.4733524E0,3.586443E0,4.1423214E1],"tree_param":{"num_deleted":"0","num_feature":"6","num_nodes":"15","size_leaf_vector":"1"}},{"base_weights":[-5.977701E-1],"categories":[],"categories_nodes":[],"categories_segments":[],"categories_sizes":[],"default_left":[0],"id":7,"left_children":[-1],"loss_changes":[0E0],"parents":[2147483647],"right_children":[-1],"split_conditions":[-1.7933103E-1],"split_indices":[0],"split_type":[0],"sum_hessian":[1.01507935E2],"tree_param":{"num_deleted":"0","num_feature":"6","num_nodes":"1","size_leaf_vector":"1"}},{"base_weights":[6.418506E-2,-1.8179461E-1,4.3386933E-1,5.583631E-1,-1.6917664E-1,6.170109E-1,-1.4808235E-1,6.511075E-1,-1.2674582E-1,6.870812E-1,-1.2674582E-1,7.253151E-2,2.1469225E-1],"categories":[],"categories_nodes":[],"categories_segments":[],"categories_sizes":[],"default_left":[0,0,0,0,0,0,0,0,0,0,0,0,0],"id":8,"left_children":[1,-1,3,5,-1,7,-1,9,-1,11,-1,-1,-1],"loss_changes":[3.1306334E1,0E0,1.0418503E1,4.797077E0,0E0,2.7354317E0,0E0,2.9012756E0,0E0,6.6374016E-1,0E0,0E0,0E0],"parents":[2147483647,0,0,2,2,3,3,5,5,7,7,9,9],"right_children":[2,-1,4,6,-1,8,-1,10,-1,12,-1,-1,-1],"split_conditions":[6.6E1,-1.8179461E-1,6.5E1,1E0,-1.6917664E-1,4E0,-1.4808235E-1,1E0,-1.2674582E-1,1.5E1,-1.2674582E-1,7.253151E-2,2.1469225E-1],"split_indices":[0,0,5,1,0,3,0,4,0,2,0,0,0],"split_type":[0,0,0,0,0,0,0,0,0,0,0,0,0],"sum_hessian":[1.2430127E2,4.3963905E1,8.0337364E1,7.1817184E1,8.520181E0,6.841641E1,3.4007719E0,6.6605316E1,1.8110921E0,6.479423E1,1.8110921E0,4.475553E0,6.0318672E1],"tree_param":{"num_deleted":"0","num_feature":"6","num_nodes":"13","size_leaf_vector":"1"}},{"base_weights":[3.433065E-1,4.84617E-1,-5.042246E-1,2.0386298E-1,2.142292E-1,-1.7094243E-1,6.347617E-2,-1.6901463E-1,5.7602066E-1,-3.3543682E-1,1.7190875E-1,1.2474944E-1,6.7305386E-1,-4.170908E-1,1.2821789E-1,-2.176259E-1,1.5114449E-1,1.9537974E-2,7.3414165E-1,1.742103E-2,-1.368854E-1,-9.978695E-2,-4.2854487E-3,1.6168341E-1,2.8719136E-1],"categories":[],"categories_nodes":[],"categories_segments":[],"categories_sizes":[],"default_left":[0,0,0,0,0,0,0,0,0,0,0,0,0,0,0,0,0,0,0,0,0,0,0,0,0],"id":9,"left_children":[1,3,5,-1,7,-1,-1,9,11,13,-1,15,17,19,-1,21,-1,-1,23,-1,-1,-1,-1,-1,-1],"loss_changes":[1.4600278E1,5.2961617E0,9.4773006E-1,0E0,6.2969E0,0E0,0E0,2.9690115E0,9.3309355E-1,1.3615594E0,0E0,8.024147E-1,6.536579E-1,3.5550523E-1,0E0,7.716267E-2,0E0,0E0,2.2750187E-1,0E0,0E0,0E0,0E0,0E0,0E0],"parents":[2147483647,0,0,1,1,2,2,4,4,7,7,8,8,9,9,11,11,12,12,13,13,15,15,18,18],"right_children":[2,4,6,-1,8,-1,-1,10,12,14,-1,16,18,20,-1,22,-1,-1,24,-1,-1,-1,-1,-1,-1],"split_conditions":[8.7E1,6.6E1,5.9E1,2.0386298E-1,8.6E1,-1.7094243E-1,6.347617E-2,6.4E1,2E0,1E0,1.7190875E-1,1E0,2.1E1,1.3E1,1.2821789E-1,1E0,1.5114449E-1,1.9537974E-2,5.1E1,1.742103E-2,-1.368854E-1,-9.978695E-2,-4.2854487E-3,1.6168341E-1,2.8719136E-1],"split_indices":[0,0,5,0,0,0,0,5,3,1,0,4,5,2,0,1,0,0,2,0,0,0,0,0,0],"split_type":[0,0,0,0,0,0,0,0,0,0,0,0,0,0,0,0,0,0,0,0,0,0,0,0,0],"sum_hessian":[1.1886742E2,1.0224767E2,1.6619747E1,5.8535446E1,4.3712223E1,1.5411681E1,1.2080653E0,2.148554E1,2.2226685E1,1.7997173E1,3.4883678E0,4.3379354E0,1.7888748E1,1.6666416E1,1.330756E0,2.5030484E0,1.8348871E0,1.8220793E0,1.606667E1,1.233284E0,1.5433132E1,1.1927263E0,1.3103223E0,1.0391989E1,5.67468E0],"tree_param":{"num_deleted":"0","num_feature":"6","num_nodes":"25","size_leaf_vector":"1"}},{"base_weights":[-5.591697E-1],"categories":[],"categories_nodes":[],"categories_segments":[],"categories_sizes":[],"default_left":[0],"id":10,"left_children":[-1],"loss_changes":[0E0],"parents":[2147483647],"right_children":[-1],"split_conditions":[-1.6775092E-1],"split_indices":[0],"split_type":[0],"sum_hessian":[8.266077E1],"tree_param":{"num_deleted":"0","num_feature":"6","num_nodes":"1","size_leaf_vector":"1"}},{"base_weights":[5.1715434E-2,-1.7090267E-1,3.572204E-1,4.5918643E-1,-1.5715632E-1,5.073305E-1,-1.3478018E-1,5.363275E-1,-1.148716E-1,5.668505E-1,-1.148716E-1,1.3335483E-1,2.1591066E-1],"categories":[],"categories_nodes":[],"categories_segments":[],"categories_sizes":[],"default_left":[0,0,0,0,0,0,0,0,0,0,0,0,0],"id":11,"left_children":[1,-1,3,5,-1,7,-1,9,-1,11,-1,-1,-1],"loss_changes":[2.086765E1,0E0,6.8517265E0,3.135909E0,0E0,1.847456E0,0E0,1.9572392E0,0E0,8.1009674E-1,0E0,0E0,0E0],"parents":[2147483647,0,0,2,2,3,3,5,5,7,7,9,9],"right_children":[2,-1,4,6,-1,8,-1,10,-1,12,-1,-1,-1],"split_conditions":[6.6E1,-1.7090267E-1,6.5E1,1E0,-1.5715632E-1,4E0,-1.3478018E-1,1E0,-1.148716E-1,8.7E1,-1.148716E-1,1.3335483E-1,2.1591066E-1],"split_indices":[0,0,5,1,0,3,0,4,0,0,0,0,0],"split_type":[0,0,0,0,0,0,0,0,0,0,0,0,0],"sum_hessian":[1.0785147E2,3.5262844E1,7.258862E1,6.5488525E1,7.1000967E0,6.261192E1,2.8766105E0,6.102184E1,1.5900785E0,5.9431763E1,1.5900785E0,3.5182056E1,2.4249706E1],"tree_param":{"num_deleted":"0","num_feature":"6","num_nodes":"13","size_leaf_vector":"1"}},{"base_weights":[3.092718E-1,4.3121582E-1,-4.6617347E-1,1.8312156E-1,1.9933595E-1,-1.6027254E-1,5.456694E-2,-1.4704314E-1,5.0729734E-1,-2.945668E-1,1.5104666E-1,8.392065E-2,5.972045E-1,-3.698408E-1,1.12256445E-1,-2.301156E-1,1.3241942E-1,1.5341747E-2,6.5378636E-1,-1.2570083E-1,2.632763E-2,-9.135606E-2,-1.7591335E-2,1.3920665E-1,2.660691E-1],"categories":[],"categories_nodes":[],"categories_segments":[],"categories_sizes":[],"default_left":[0,0,0,0,0,0,0,0,0,0,0,0,0,0,0,0,0,0,0,0,0,0,0,0,0],"id":12,"left_children":[1,3,5,-1,7,-1,-1,9,11,13,-1,15,17,19,-1,21,-1,-1,23,-1,-1,-1,-1,-1,-1],"loss_changes":[9.906904E0,3.5851784E0,7.3363996E-1,0E0,4.3813396E0,0E0,0E0,2.046291E0,7.7196074E-1,9.8168683E-1,0E0,6.56863E-1,5.1192045E-1,3.8682032E-1,0E0,2.412659E-2,0E0,0E0,2.9218626E-1,0E0,0E0,0E0,0E0,0E0,0E0],"parents":[2147483647,0,0,1,1,2,2,4,4,7,7,8,8,9,9,11,11,12,12,13,13,15,15,18,18],"right_children":[2,4,6,-1,8,-1,-1,10,12,14,-1,16,18,20,-1,22,-1,-1,24,-1,-1,-1,-1,-1,-1],"split_conditions":[8.7E1,6.6E1,5.9E1,1.8312156E-1,8.6E1,-1.6027254E-1,5.456694E-2,6.4E1,2E0,1E0,1.5104666E-1,1E0,2.1E1,5.7E1,1.12256445E-1,1E0,1.3241942E-1,1.5341747E-2,5.1E1,-1.2570083E-1,2.632763E-2,-9.135606E-2,-1.7591335E-2,1.3920665E-1,2.660691E-1],"split_indices":[0,0,5,0,0,0,0,5,3,1,0,4,5,2,0,1,0,0,2,0,0,0,0,0,0],"split_type":[0,0,0,0,0,0,0,0,0,0,0,0,0,0,0,0,0,0,0,0,0,0,0,0,0],"sum_hessian":[1.01641594E2,8.8213356E1,1.3428234E1,4.88394E1,3.9373955E1,1.231082E1,1.1174146E0,1.8777039E1,2.0596918E1,1.575207E1,3.0249677E0,3.9464285E0,1.6650488E1,1.4560171E1,1.1918988E0,2.290528E0,1.6559006E0,1.7420428E0,1.4908445E1,1.32238245E1,1.3363471E0,1.0563276E0,1.2342005E0,9.866867E0,5.0415792E0],"tree_param":{"num_deleted":"0","num_feature":"6","num_nodes":"25","size_leaf_vector":"1"}},{"base_weights":[-5.291122E-1],"categories":[],"categories_nodes":[],"categories_segments":[],"categories_sizes":[],"default_left":[0],"id":13,"left_children":[-1],"loss_changes":[0E0],"parents":[2147483647],"right_children":[-1],"split_conditions":[-1.5873367E-1],"split_indices":[0],"split_type":[0],"sum_hessian":[6.65071E1],"tree_param":{"num_deleted":"0","num_feature":"6","num_nodes":"1","size_leaf_vector":"1"}},{"base_weights":[4.279608E-2,-1.6284677E-1,3.0130666E-1,3.8750103E-1,-1.4710793E-1,4.289023E-1,-1.2375938E-1,2.9060948E-1,1.9195902E-1,5.4346234E-1,-1.3754973E-1,1.7271969E-1,4.314977E-2,5.683736E-3,-1.645092E-1],"categories":[],"categories_nodes":[],"categories_segments":[],"categories_sizes":[],"default_left":[0,0,0,0,0,0,0,0,0,0,0,0,0,0,0],"id":14,"left_children":[1,-1,3,5,-1,7,-1,9,-1,11,13,-1,-1,-1,-1],"loss_changes":[1.4223765E1,0E0,4.630582E0,2.1392536E0,0E0,1.4717312E0,0E0,3.9887373E0,0E0,2.1292114E-1,9.2468584E-1,0E0,0E0,0E0,0E0],"parents":[2147483647,0,0,2,2,3,3,5,5,7,7,9,9,10,10],"right_children":[2,-1,4,6,-1,8,-1,10,-1,12,14,-1,-1,-1,-1],"split_conditions":[6.6E1,-1.6284677E-1,6.5E1,1E0,-1.4710793E-1,8.7E1,-1.2375938E-1,8.6E1,1.9195902E-1,5.7E1,5.1E1,1.7271969E-1,4.314977E-2,5.683736E-3,-1.645092E-1],"split_indices":[0,0,5,1,0,0,0,0,0,2,2,0,0,0,0],"split_type":[0,0,0,0,0,0,0,0,0,0,0,0,0,0,0],"sum_hessian":[9.187495E1,2.7799458E1,6.4075485E1,5.824452E1,5.83097E0,5.5819767E1,2.4247499E0,3.5153133E1,2.0666632E1,2.1931824E1,1.3221312E1,1.9885418E1,2.0464063E0,1.0264889E1,2.9564228E0],"tree_param":{"num_deleted":"0","num_feature":"6","num_nodes":"15","size_leaf_vector":"1"}},{"base_weights":[2.808349E-1,3.8722238E-1,-4.339116E-1,5.6220216E-1,1.8244238E-1,-1.5154673E-1,4.724602E-2,1.7541815E-1,3.3713073E-1,-1.1365811E-1,4.1873914E-1,-4.580066E-2,1.438962E-1,-2.4457946E-1,1.3494861E-1,3.9774496E-2,4.9938872E-1,-3.143484E-1,9.930826E-2,-2.5569975E-1,1.2036437E-1,2.5231534E-1,6.5405816E-1,4.3329656E-2,-1.0977366E-1,-2.5450738E-2,-9.40359E-2,1.6274297E-1,-3.1719424E-2,5.6012075E-2,2.0868908E-1],"categories":[],"categories_nodes":[],"categories_segments":[],"categories_sizes":[],"default_left":[0,0,0,0,0,0,0,0,0,0,0,0,0,0,0,0,0,0,0,0,0,0,0,0,0,0,0,0,0,0,0],"id":15,"left_children":[1,3,5,7,9,-1,-1,-1,11,13,15,-1,-1,17,-1,19,21,23,-1,25,-1,27,29,-1,-1,-1,-1,-1,-1,-1,-1],"loss_changes":[6.776447E0,2.6269884E0,5.738425E-1,8.681297E-3,2.6069725E0,0E0,0E0,0E0,4.9590385E-1,1.3657582E0,6.08449E-1,0E0,0E0,6.84778E-1,0E0,6.038756E-1,4.7941828E-1,3.700831E-1,0E0,4.919812E-3,0E0,9.010134E-1,5.9421062E-2,0E0,0E0,0E0,0E0,0E0,0E0,0E0,0E0],"parents":[2147483647,0,0,1,1,2,2,3,3,4,4,8,8,9,9,10,10,13,13,15,15,16,16,17,17,19,19,21,21,22,22],"right_children":[2,4,6,8,10,-1,-1,-1,12,14,16,-1,-1,18,-1,20,22,24,-1,26,-1,28,30,-1,-1,-1,-1,-1,-1,-1,-1],"split_conditions":[8.7E1,6.6E1,5.9E1,6.4E1,8.6E1,-1.5154673E-1,4.724602E-2,1.7541815E-1,6.5E1,6.4E1,2E0,-4.580066E-2,1.438962E-1,1E0,1.3494861E-1,1E0,4E1,1.3E1,9.930826E-2,4.2E1,1.2036437E-1,2.9E1,2.1E1,4.3329656E-2,-1.0977366E-1,-2.5450738E-2,-9.40359E-2,1.6274297E-1,-3.1719424E-2,5.6012075E-2,2.0868908E-1],"split_indices":[0,0,5,2,0,0,0,0,2,5,3,0,0,1,0,4,2,2,0,5,0,5,5,0,0,0,0,0,0,0,0],"split_type":[0,0,0,0,0,0,0,0,0,0,0,0,0,0,0,0,0,0,0,0,0,0,0,0,0,0,0,0,0,0,0],"sum_hessian":[8.590716E1,7.517575E1,1.0731404E1,3.959626E1,3.5579494E1,9.707765E0,1.0236399E0,3.454142E1,5.054842E0,1.6021791E1,1.9557701E1,1.1232982E0,3.9315436E0,1.3460347E1,2.5614433E0,3.693847E0,1.5863854E1,1.2410021E1,1.0503268E0,2.1933522E0,1.5004947E0,7.1205707E0,8.743284E0,1.0719014E0,1.13381195E1,1.1777864E0,1.015566E0,3.6486242E0,3.4719465E0,1.1627592E0,7.580525E0],"tree_param":{"num_deleted":"0","num_feature":"6","num_nodes":"31","size_leaf_vector":"1"}},{"base_weights":[-5.039199E-1,-1.6137043E-1,-3.6311734E-1,-2.1844066E-3,-4.1908982E-1,-9.452791E-4,-1.4865442E-1],"categories":[],"categories_nodes":[],"categories_segments":[],"categories_sizes":[],"default_left":[0,0,0,0,0,0,0],"id":16,"left_children":[1,-1,3,-1,5,-1,-1],"loss_changes":[6.3981056E-2,0E0,2.6809692E-1,0E0,3.7181616E-1,0E0,0E0],"parents":[2147483647,0,0,2,2,4,4],"right_children":[2,-1,4,-1,6,-1,-1],"split_conditions":[5.7E1,-1.6137043E-1,3.4E1,-2.1844066E-3,5.8E1,-9.452791E-4,-1.4865442E-1],"split_indices":[2,0,0,0,2,0,0],"split_type":[0,0,0,0,0,0,0],"sum_hessian":[5.319394E1,4.0580032E1,1.2613905E1,1.8680665E0,1.0745839E1,1.8295927E0,8.916246E0],"tree_param":{"num_deleted":"0","num_feature":"6","num_nodes":"7","size_leaf_vector":"1"}},{"base_weights":[3.6860988E-2,-1.5651302E-1,2.580756E-1,3.3245352E-1,-1.3845144E-1,1.931211E-1,1.7600177E-1,4.3983954E-1,-1.4710067E-1,4.067071E-3,4.688533E-1,6.1835065E-2,-4.0371227E-1,1.707893E-1,8.1038386E-2,-8.3992295E-2,1.3079251E-1,-4.6974E-3,-1.3949907E-1],"categories":[],"categories_nodes":[],"categories_segments":[],"categories_sizes":[],"default_left":[0,0,0,0,0,0,0,0,0,0,0,0,0,0,0,0,0,0,0],"id":17,"left_children":[1,-1,3,5,-1,7,-1,9,11,-1,13,15,17,-1,-1,-1,-1,-1,-1],"loss_changes":[9.865399E0,0E0,3.2083614E0,1.7396889E0,0E0,3.0263295E0,0E0,2.4969482E-1,8.603183E-1,0E0,2.3252964E-1,1.3312392E0,1.6217124E-1,0E0,0E0,0E0,0E0,0E0,0E0],"parents":[2147483647,0,0,2,2,3,3,5,5,7,7,8,8,10,10,11,11,12,12],"right_children":[2,-1,4,6,-1,8,-1,10,12,-1,14,16,18,-1,-1,-1,-1,-1,-1],"split_conditions":[6.6E1,-1.5651302E-1,6.5E1,8.7E1,-1.3845144E-1,8.6E1,1.7600177E-1,1.3E1,4E1,4.067071E-3,3E0,2.9E1,2.1E1,1.707893E-1,8.1038386E-2,-8.3992295E-2,1.3079251E-1,-4.6974E-3,-1.3949907E-1],"split_indices":[0,0,5,0,0,0,0,2,2,0,3,5,5,0,0,0,0,0,0],"split_type":[0,0,0,0,0,0,0,0,0,0,0,0,0,0,0,0,0,0,0],"sum_hessian":[7.7750725E1,2.167147E1,5.6079254E1,5.1313347E1,4.7659063E0,3.4283115E1,1.7030233E1,1.9702593E1,1.4580522E1,1.3490477E0,1.8353544E1,8.455225E0,6.1252966E0,1.09527855E1,7.400759E0,4.5500474E0,3.9051778E0,1.0066546E0,5.118642E0],"tree_param":{"num_deleted":"0","num_feature":"6","num_nodes":"19","size_leaf_vector":"1"}},{"base_weights":[2.5646776E-1,3.4928894E-1,-4.0507925E-1,5.26631E-1,1.644664E-1,-1.4356591E-1,2.7599951E-2,1.6603279E-1,2.834138E-1,-8.161625E-2,3.4347713E-1,-5.2305955E-2,1.321913E-1,-1.9616142E-1,1.2192219E-1,5.2451426E-3,4.1678852E-1,-1.5901579E-2,-1.3609073E-1,-2.648753E-1,1.0974793E-1,-1.0199217E-2,4.7692013E-1,6.9539346E-2,-1.029049E-1,-2.3772998E-2,-9.714252E-2,9.446155E-2,2.114024E-1],"categories":[],"categories_nodes":[],"categories_segments":[],"categories_sizes":[],"default_left":[0,0,0,0,0,0,0,0,0,0,0,0,0,0,0,0,0,0,0,0,0,0,0,0,0,0,0,0,0],"id":18,"left_children":[1,3,5,7,9,-1,-1,-1,11,13,15,-1,-1,17,-1,19,21,23,-1,25,-1,-1,27,-1,-1,-1,-1,-1,-1],"loss_changes":[4.6664133E0,2.0490909E0,3.9208746E-1,5.7026863E-2,1.4976205E0,0E0,0E0,0E0,4.5872176E-1,9.10211E-1,4.814453E-1,0E0,0E0,5.825389E-1,0E0,5.3395134E-1,4.5037913E-1,7.690793E-1,0E0,8.750752E-3,0E0,0E0,3.0214405E-1,0E0,0E0,0E0,0E0,0E0,0E0],"parents":[2147483647,0,0,1,1,2,2,3,3,4,4,8,8,9,9,10,10,13,13,15,15,16,16,17,17,19,19,22,22],"right_children":[2,4,6,8,10,-1,-1,-1,12,14,16,-1,-1,18,-1,20,22,24,-1,26,-1,-1,28,-1,-1,-1,-1,-1,-1],"split_conditions":[8.7E1,6.6E1,5.8E1,6.4E1,8.6E1,-1.4356591E-1,2.7599951E-2,1.6603279E-1,6.5E1,6.4E1,2E0,-5.2305955E-2,1.321913E-1,4.3E1,1.2192219E-1,1E0,2.1E1,7.8E1,-1.3609073E-1,5.3E1,1.0974793E-1,-1.0199217E-2,5.1E1,6.9539346E-2,-1.029049E-1,-2.3772998E-2,-9.714252E-2,9.446155E-2,2.114024E-1],"split_indices":[0,0,5,2,0,0,0,0,2,5,3,0,0,5,0,4,5,0,0,2,0,0,2,0,0,0,0,0,0],"split_type":[0,0,0,0,0,0,0,0,0,0,0,0,0,0,0,0,0,0,0,0,0,0,0,0,0,0,0,0,0],"sum_hessian":[7.268913E1,6.415904E1,8.530095E0,3.1798326E1,3.236071E1,7.4640903E0,1.0660049E0,2.7492155E1,4.306172E0,1.3856507E1,1.8504204E1,1.0730298E0,3.2331421E0,1.17068205E1,2.1496863E0,3.4871788E0,1.5017026E1,7.5104523E0,4.196368E0,2.1454158E0,1.341763E0,1.8185558E0,1.319847E1,4.439864E0,3.0705884E0,1.0819712E0,1.0634446E0,9.103674E0,4.0947957E0],"tree_param":{"num_deleted":"0","num_feature":"6","num_nodes":"29","size_leaf_vector":"1"}},{"base_weights":[-4.8172718E-1,-1.5688176E-1,-3.217488E-1,-1.3818642E-1,-1.1659417E-1,1.8126005E-1,-1.1516405E-1,1.4024287E-1,-8.057755E-2],"categories":[],"categories_nodes":[],"categories_segments":[],"categories_sizes":[],"default_left":[0,0,0,0,0,0,0,0,0],"id":19,"left_children":[1,-1,3,-1,5,7,-1,-1,-1],"loss_changes":[1.199007E-1,0E0,2.754153E-1,0E0,5.474215E-1,5.785176E-1,0E0,0E0,0E0],"parents":[2147483647,0,0,2,2,4,4,5,5],"right_children":[2,-1,4,-1,6,8,-1,-1,-1],"split_conditions":[5.7E1,-1.5688176E-1,5.9E1,-1.3818642E-1,8.8E1,1E0,-1.1516405E-1,1.4024287E-1,-8.057755E-2],"split_indices":[2,0,5,0,5,4,0,0,0],"split_type":[0,0,0,0,0,0,0,0,0],"sum_hessian":[4.2706062E1,3.2154045E1,1.0552017E1,5.5499344E0,5.002083E0,2.5179813E0,2.4841013E0,1.5149336E0,1.0030478E0],"tree_param":{"num_deleted":"0","num_feature":"6","num_nodes":"9","size_leaf_vector":"1"}},{"base_weights":[3.229802E-2,-1.5121703E-1,2.2298107E-1,2.8949165E-1,-1.3132808E-1,1.623882E-1,1.643929E-1,3.8082805E-1,-1.10709004E-1,2.4739906E-1,1.6016403E-1,6.330008E-2,-3.2173944E-1,1.0499813E-1,-3.7588965E-2,-1.5778224E-1,7.3071934E-2,-3.2475036E-2,-1.4177947E-1],"categories":[],"categories_nodes":[],"categories_segments":[],"categories_sizes":[],"default_left":[0,0,0,0,0,0,0,0,0,0,0,0,0,0,0,0,0,0,0],"id":20,"left_children":[1,-1,3,5,-1,7,-1,9,11,13,-1,15,17,-1,-1,-1,-1,-1,-1],"loss_changes":[6.9379525E0,0E0,2.3208675E0,1.4211152E0,0E0,1.96506E0,0E0,2.3824549E-1,5.748338E-1,4.8555046E-1,0E0,1.0959346E0,1.73908E-1,0E0,0E0,0E0,0E0,0E0,0E0],"parents":[2147483647,0,0,2,2,3,3,5,5,7,7,8,8,9,9,11,11,12,12],"right_children":[2,-1,4,6,-1,8,-1,10,12,14,-1,16,18,-1,-1,-1,-1,-1,-1],"split_conditions":[6.6E1,-1.5121703E-1,6.5E1,8.7E1,-1.3132808E-1,8.6E1,1.643929E-1,4.3E1,4E1,5.1E1,1.6016403E-1,1.5E1,3E1,1.0499813E-1,-3.7588965E-2,-1.5778224E-1,7.3071934E-2,-3.2475036E-2,-1.4177947E-1],"split_indices":[0,0,5,0,0,0,0,5,2,2,0,2,5,0,0,0,0,0,0],"split_type":[0,0,0,0,0,0,0,0,0,0,0,0,0,0,0,0,0,0,0],"sum_hessian":[6.5738106E1,1.6810362E1,4.8927746E1,4.496356E1,3.9641883E0,3.1233492E1,1.3730066E1,1.7134108E1,1.4099385E1,1.0551697E1,6.582411E0,8.111193E0,5.9881926E0,8.321804E0,2.2298923E0,1.4509959E0,6.6601963E0,3.190576E0,2.7976165E0],"tree_param":{"num_deleted":"0","num_feature":"6","num_nodes":"19","size_leaf_vector":"1"}},{"base_weights":[2.3290977E-1,3.1337366E-1,-3.7750137E-1,4.970436E-1,1.4695758E-1,-1.3552865E-1,6.3985153E-3,1.587914E-1,2.3910387E-1,-5.8782723E-2,2.8671733E-1,-5.647517E-2,1.22947566E-1,-2.9612228E-1,1.8589737E-1,-1.8432649E-2,3.5396186E-1,3.433958E-2,-1.1919757E-1,3.9807704E-1,-1.0340708E-1,-2.641369E-1,1.0103691E-1,-1.167076E-2,4.0864024E-1,-4.5994133E-2,1.6892666E-1,-2.3840914E-2,-9.494196E-2,7.684204E-2,1.914467E-1],"categories":[],"categories_nodes":[],"categories_segments":[],"categories_sizes":[],"default_left":[0,0,0,0,0,0,0,0,0,0,0,0,0,0,0,0,0,0,0,0,0,0,0,0,0,0,0,0,0,0,0],"id":21,"left_children":[1,3,5,7,9,-1,-1,-1,11,13,15,-1,-1,17,19,21,23,-1,-1,25,-1,27,-1,-1,29,-1,-1,-1,-1,-1,-1],"loss_changes":[3.2137208E0,1.6456294E0,2.4046218E-1,9.237051E-2,9.0593076E-1,0E0,0E0,0E0,4.2360467E-1,8.2958126E-1,3.8783062E-1,0E0,0E0,3.4282732E-1,9.4570374E-1,4.6478486E-1,3.4405398E-1,0E0,0E0,5.9531134E-1,0E0,4.867226E-3,0E0,0E0,3.089528E-1,0E0,0E0,0E0,0E0,0E0,0E0],"parents":[2147483647,0,0,1,1,2,2,3,3,4,4,8,8,9,9,10,10,13,13,14,14,15,15,16,16,19,19,21,21,24,24],"right_children":[2,4,6,8,10,-1,-1,-1,12,14,16,-1,-1,18,20,22,24,-1,-1,26,-1,28,-1,-1,30,-1,-1,-1,-1,-1,-1],"split_conditions":[8.7E1,6.6E1,5.7E1,6.4E1,8.6E1,-1.3552865E-1,6.3985153E-3,1.587914E-1,6.5E1,3E0,2E0,-5.647517E-2,1.22947566E-1,1.4E1,8E1,1E0,2.1E1,3.433958E-2,-1.1919757E-1,3.5E1,-1.0340708E-1,5.3E1,1.0103691E-1,-1.167076E-2,5.1E1,-4.5994133E-2,1.6892666E-1,-2.3840914E-2,-9.494196E-2,7.684204E-2,1.914467E-1],"split_indices":[0,0,5,2,0,0,0,0,2,3,3,0,0,2,0,4,5,0,0,2,0,2,0,0,2,0,0,0,0,0,0],"split_type":[0,0,0,0,0,0,0,0,0,0,0,0,0,0,0,0,0,0,0,0,0,0,0,0,0,0,0,0,0,0,0],"sum_hessian":[6.2022594E1,5.5228973E1,6.79362E0,2.5309101E1,2.9919874E1,5.615342E0,1.1782775E0,2.1560446E1,3.748655E0,1.2337398E1,1.7582476E1,1.0407481E0,2.707907E0,6.1559176E0,6.18148E0,3.306002E0,1.4276474E1,1.1913753E0,4.9645424E0,4.594073E0,1.5874068E0,2.1058333E0,1.2001687E0,1.7794732E0,1.2497001E1,1.0744994E0,3.5195737E0,1.0211558E0,1.0846775E0,8.779511E0,3.71749E0],"tree_param":{"num_deleted":"0","num_feature":"6","num_nodes":"31","size_leaf_vector":"1"}},{"base_weights":[-4.6059328E-1,-1.5309516E-1,-2.833546E-1,-1.319872E-1,-7.077023E-2,6.1030768E-2,-1.0672439E-1],"categories":[],"categories_nodes":[],"categories_segments":[],"categories_sizes":[],"default_left":[0,0,0,0,0,0,0],"id":22,"left_children":[1,-1,3,-1,5,-1,-1],"loss_changes":[1.6742182E-1,0E0,3.0194664E-1,0E0,4.9713016E-1,0E0,0E0],"parents":[2147483647,0,0,2,2,4,4],"right_children":[2,-1,4,-1,6,-1,-1],"split_conditions":[5.7E1,-1.5309516E-1,5.9E1,-1.319872E-1,8.8E1,6.1030768E-2,-1.0672439E-1],"split_indices":[2,0,5,0,5,0,0],"split_type":[0,0,0,0,0,0,0],"sum_hessian":[3.440482E1,2.5399723E1,9.0050955E0,4.569417E0,4.4356785E0,2.4063845E0,2.0292938E0],"tree_param":{"num_deleted":"0","num_feature":"6","num_nodes":"7","size_leaf_vector":"1"}},{"base_weights":[2.8589325E-2,-1.4643112E-1,1.9257194E-1,2.519007E-1,-1.2433257E-1,1.3667116E-1,1.553202E-1,3.3232328E-1,-8.7303154E-2,1.9241682E-1,1.4448366E-1,2.8451711E-2,-3.4484065E-1,1.261358E-1,-5.127738E-2,-1.4366193E-1,4.4978075E-2,-4.812651E-2,-1.3747922E-1],"categories":[],"categories_nodes":[],"categories_segments":[],"categories_sizes":[],"default_left":[0,0,0,0,0,0,0,0,0,0,0,0,0,0,0,0,0,0,0],"id":23,"left_children":[1,-1,3,5,-1,7,-1,9,11,13,-1,15,17,-1,-1,-1,-1,-1,-1],"loss_changes":[4.9207034E0,0E0,1.6875395E0,1.1749697E0,0E0,1.3317641E0,0E0,2.430954E-1,4.4663915E-1,8.9743173E-1,0E0,7.517373E-1,2.3123741E-2,0E0,0E0,0E0,0E0,0E0,0E0],"parents":[2147483647,0,0,2,2,3,3,5,5,7,7,8,8,9,9,11,11,12,12],"right_children":[2,-1,4,6,-1,8,-1,10,12,14,-1,16,18,-1,-1,-1,-1,-1,-1],"split_conditions":[6.6E1,-1.4643112E-1,6.5E1,8.7E1,-1.2433257E-1,8.6E1,1.553202E-1,7.8E1,5.1E1,7.5E1,1.4448366E-1,1.5E1,6.5E1,1.261358E-1,-5.127738E-2,-1.4366193E-1,4.4978075E-2,-4.812651E-2,-1.3747922E-1],"split_indices":[0,0,5,0,0,0,0,0,2,0,0,2,2,0,0,0,0,0,0],"split_type":[0,0,0,0,0,0,0,0,0,0,0,0,0,0,0,0,0,0,0],"sum_hessian":[5.5966644E1,1.3006834E1,4.295981E1,3.966775E1,3.2920594E0,2.8728891E1,1.0938859E1,1.5075753E1,1.3653138E1,8.964004E0,6.111749E0,1.0033103E1,3.6200347E0,5.410899E0,3.5531046E0,1.3698717E0,8.663231E0,2.2979999E0,1.3220348E0],"tree_param":{"num_deleted":"0","num_feature":"6","num_nodes":"19","size_leaf_vector":"1"}},{"base_weights":[2.1052818E-1,4.7057232E-1,4.430927E-2,1.5292323E-1,1.9895725E-1,1.3097811E-1,-3.5020202E-1,-6.0409166E-2,1.14898294E-1,6.908833E-2,1.3861576E-1,-1.2814915E-1,6.1212573E-3,-3.6181822E-2,2.6981282E-1,1.4074141E-1,-1.289491E-1,-6.447862E-2,4.1105762E-1,-6.26057E-2,1.0892942E-1,2.2998948E-2,1.5783383E-1],"categories":[],"categories_nodes":[],"categories_segments":[],"categories_sizes":[],"default_left":[0,0,0,0,0,0,0,0,0,0,0,0,0,0,0,0,0,0,0,0,0,0,0],"id":24,"left_children":[1,3,5,-1,7,9,11,-1,-1,13,-1,-1,-1,15,17,-1,19,-1,21,-1,-1,-1,-1],"loss_changes":[2.33186E0,1.2330055E-1,1.2189727E0,0E0,3.9408517E-1,5.5937207E-1,1.9274116E-1,0E0,0E0,5.483408E-1,0E0,0E0,0E0,8.8560355E-1,6.96812E-1,0E0,6.900151E-1,0E0,2.3764253E-1,0E0,0E0,0E0,0E0],"parents":[2147483647,0,0,1,1,2,2,4,4,5,5,6,6,9,9,13,13,14,14,16,16,18,18],"right_children":[2,4,6,-1,8,10,12,-1,-1,14,-1,-1,-1,16,18,-1,20,-1,22,-1,-1,-1,-1],"split_conditions":[6.6E1,6.4E1,8.7E1,1.5292323E-1,6.5E1,4E0,5.7E1,-6.0409166E-2,1.14898294E-1,5.2E1,1.3861576E-1,-1.2814915E-1,6.1212573E-3,1.2E1,2E0,1.4074141E-1,1E0,-6.447862E-2,7.6E1,-6.26057E-2,1.0892942E-1,2.2998948E-2,1.5783383E-1],"split_indices":[0,2,0,0,2,3,5,0,0,2,0,0,0,2,3,0,4,0,0,0,0,0,0],"split_type":[0,0,0,0,0,0,0,0,0,0,0,0,0,0,0,0,0,0,0,0,0,0,0],"sum_hessian":[5.343033E1,2.0120855E1,3.330947E1,1.6818602E1,3.3022547E0,2.7857544E1,5.4519286E0,1.010357E0,2.2918978E0,2.4488447E1,3.3690963E0,4.388073E0,1.0638559E0,1.6601511E1,7.8869357E0,1.9457138E0,1.4655798E1,1.661865E0,6.2250705E0,1.3107588E1,1.5482097E0,2.0201256E0,4.204945E0],"tree_param":{"num_deleted":"0","num_feature":"6","num_nodes":"23","size_leaf_vector":"1"}},{"base_weights":[-4.3933997E-1,-1.4975826E-1,-2.4492146E-1,-1.2583984E-1,-2.9166639E-2,6.604068E-2,-9.8630115E-2],"categories":[],"categories_nodes":[],"categories_segments":[],"categories_sizes":[],"default_left":[0,0,0,0,0,0,0],"id":25,"left_children":[1,-1,3,-1,5,-1,-1],"loss_changes":[2.1374893E-1,0E0,3.176657E-1,0E0,4.4525817E-1,0E0,0E0],"parents":[2147483647,0,0,2,2,4,4],"right_children":[2,-1,4,-1,6,-1,-1],"split_conditions":[5.7E1,-1.4975826E-1,5.9E1,-1.2583984E-1,8.8E1,6.604068E-2,-9.8630115E-2],"split_indices":[2,0,5,0,5,0,0],"split_type":[0,0,0,0,0,0,0],"sum_hessian":[2.7875048E1,2.011482E1,7.760227E0,3.7678633E0,3.992364E0,2.3238704E0,1.6684934E0],"tree_param":{"num_deleted":"0","num_feature":"6","num_nodes":"7","size_leaf_vector":"1"}},{"base_weights":[2.4943002E-2,-1.4178716E-1,1.6505696E-1,2.1899159E-1,-1.2093197E-1,2.5394487E-1,-1.0523667E-1,2.870183E-1,-9.6997365E-2,3.126738E-1,-8.077935E-2,-2.4620341E-2,1.0772369E-1],"categories":[],"categories_nodes":[],"categories_segments":[],"categories_sizes":[],"default_left":[0,0,0,0,0,0,0,0,0,0,0,0,0],"id":26,"left_children":[1,-1,3,5,-1,7,-1,9,-1,11,-1,-1,-1],"loss_changes":[3.5070558E0,0E0,1.2870493E0,8.135364E-1,0E0,7.582357E-1,0E0,5.622194E-1,0E0,6.244526E-1,0E0,0E0,0E0],"parents":[2147483647,0,0,2,2,3,3,5,5,7,7,9,9],"right_children":[2,-1,4,6,-1,8,-1,10,-1,12,-1,-1,-1],"split_conditions":[6.6E1,-1.4178716E-1,1E0,4E0,-1.2093197E-1,1E0,-1.0523667E-1,6.5E1,-9.6997365E-2,1.5E1,-8.077935E-2,-2.4620341E-2,1.0772369E-1],"split_indices":[0,0,1,3,0,4,0,5,0,2,0,0,0],"split_type":[0,0,0,0,0,0,0,0,0,0,0,0,0],"sum_hessian":[4.818589E1,1.00661745E1,3.8119717E1,3.5376095E1,2.74362E0,3.385365E1,1.5224472E0,3.249473E1,1.358917E0,3.1480776E1,1.0139561E0,3.2306862E0,2.825009E1],"tree_param":{"num_deleted":"0","num_feature":"6","num_nodes":"13","size_leaf_vector":"1"}},{"base_weights":[1.9820634E-1,2.627588E-1,-3.2916376E-1,4.4520652E-1,1.3528918E-1,-1.2056993E-1,-9.579989E-3,1.4778157E-1,1.634057E-1,-1.24372095E-1,2.11403E-1,-5.225997E-2,1.0684318E-1,8.993667E-2,-2.6112607E-1,-1.525383E-1,3.1122157E-1,-1.1146374E-1,-9.931894E-2,-1.1857131E-1,4.2141948E-2,5.962187E-1,1.5511478E-1,3.0641897E-2,-9.043105E-2,2.4855192E-1,5.835392E-2,-9.404275E-2,1.1662327E-1],"categories":[],"categories_nodes":[],"categories_segments":[],"categories_sizes":[],"default_left":[0,0,0,0,0,0,0,0,0,0,0,0,0,0,0,0,0,0,0,0,0,0,0,0,0,0,0,0,0],"id":27,"left_children":[1,3,5,7,9,-1,-1,-1,11,13,15,-1,-1,-1,17,19,21,-1,23,-1,-1,25,27,-1,-1,-1,-1,-1,-1],"loss_changes":[1.689213E0,9.281976E-1,1.077624E-1,1.4716578E-1,5.49181E-1,0E0,0E0,0E0,3.1909305E-1,4.6267867E-1,8.0418736E-1,0E0,0E0,0E0,6.2181145E-2,4.2207468E-1,6.494111E-1,0E0,1.7795512E-1,0E0,0E0,3.5670507E-1,1.4493414E0,0E0,0E0,0E0,0E0,0E0,0E0],"parents":[2147483647,0,0,1,1,2,2,3,3,4,4,8,8,9,9,10,10,14,14,15,15,16,16,18,18,21,21,22,22],"right_children":[2,4,6,8,10,-1,-1,-1,12,14,16,-1,-1,-1,18,20,22,-1,24,-1,-1,26,28,-1,-1,-1,-1,-1,-1],"split_conditions":[8.7E1,6.6E1,5.6E1,6.4E1,2E0,-1.2056993E-1,-9.579989E-3,1.4778157E-1,3.8E1,2E1,2.6E1,-5.225997E-2,1.0684318E-1,8.993667E-2,8.4E1,4.3E1,2.9E1,-1.1146374E-1,5.3E1,-1.1857131E-1,4.2141948E-2,3.6E1,3.7E1,3.0641897E-2,-9.043105E-2,2.4855192E-1,5.835392E-2,-9.404275E-2,1.1662327E-1],"split_indices":[0,0,5,2,3,0,0,0,0,5,5,0,0,0,0,2,5,0,2,0,0,2,2,0,0,0,0,0,0],"split_type":[0,0,0,0,0,0,0,0,0,0,0,0,0,0,0,0,0,0,0,0,0,0,0,0,0,0,0,0,0],"sum_hessian":[4.6079296E1,4.150113E1,4.5781684E0,1.6044268E1,2.5456861E1,3.3951774E0,1.182991E0,1.3093832E1,2.950435E0,5.626864E0,1.9829998E1,1.1072061E0,1.8432287E0,1.0812E0,4.545664E0,4.1544824E0,1.5675515E1,1.9314123E0,2.6142519E0,2.0815048E0,2.0729778E0,4.549817E0,1.1125698E1,1.5569917E0,1.05726E0,2.2096236E0,2.3401937E0,3.5878267E0,7.5378714E0],"tree_param":{"num_deleted":"0","num_feature":"6","num_nodes":"29","size_leaf_vector":"1"}},{"base_weights":[-4.172668E-1,-1.4660342E-1,-2.0717202E-1,-1.1902585E-1,1.9720937E-3,6.761827E-2,-9.1467924E-2],"categories":[],"categories_nodes":[],"categories_segments":[],"categories_sizes":[],"default_left":[0,0,0,0,0,0,0],"id":28,"left_children":[1,-1,3,-1,5,-1,-1],"loss_changes":[2.5570107E-1,0E0,3.089074E-1,0E0,3.902696E-1,0E0,0E0],"parents":[2147483647,0,0,2,2,4,4],"right_children":[2,-1,4,-1,6,-1,-1],"split_conditions":[5.7E1,-1.4660342E-1,5.9E1,-1.1902585E-1,8.8E1,6.761827E-2,-9.1467924E-2],"split_indices":[2,0,5,0,5,0,0],"split_type":[0,0,0,0,0,0,0],"sum_hessian":[2.2791145E1,1.6019968E1,6.7711782E0,3.0811808E0,3.6899977E0,2.288953E0,1.4010447E0],"tree_param":{"num_deleted":"0","num_feature":"6","num_nodes":"7","size_leaf_vector":"1"}},{"base_weights":[1.3994326E-2,-1.3702694E-1,1.3293394E-1,3.3521745E-2,1.3137747E-1,2.1670386E-1,-1.3909462E-1,6.1562285E-2,1.2609096E-1,1.5113718E-2,-2.9241818E-1,2.5810564E-1,-2.1273014E-1,-2.3142909E-1,8.206235E-2,-4.4101782E-2,-4.4382963E-1,-3.029246E-2,1.12052105E-1,3.9875742E-2,-1.9022259E-1,9.538309E-2,-1.8410306E-1,7.3444396E-2,-7.719214E-2,-1.9797694E-2,-1.634695E-1],"categories":[],"categories_nodes":[],"categories_segments":[],"categories_sizes":[],"default_left":[0,0,0,0,0,0,0,0,0,0,0,0,0,0,0,0,0,0,0,0,0,0,0,0,0,0,0],"id":29,"left_children":[1,-1,3,5,-1,7,9,11,-1,13,15,17,19,21,-1,23,25,-1,-1,-1,-1,-1,-1,-1,-1,-1,-1],"loss_changes":[2.444644E0,0E0,1.0393536E0,8.9340436E-1,0E0,4.0484297E-1,3.5115296E-1,5.352798E-1,0E0,5.89719E-1,2.5875217E-1,2.7154377E-1,7.058298E-1,1.1968039E0,0E0,3.0411184E-1,1.3543874E-1,0E0,0E0,0E0,0E0,0E0,0E0,0E0,0E0,0E0,0E0],"parents":[2147483647,0,0,2,2,3,3,5,5,6,6,7,7,9,9,10,10,11,11,12,12,13,13,15,15,16,16],"right_children":[2,-1,4,6,-1,8,10,12,-1,14,16,18,20,22,-1,24,26,-1,-1,-1,-1,-1,-1,-1,-1,-1,-1],"split_conditions":[6.6E1,-1.3702694E-1,8.7E1,8.6E1,1.3137747E-1,7.8E1,4E1,3E0,1.2609096E-1,2.9E1,3E1,1.9E1,7.6E1,2.3E1,8.206235E-2,5.1E1,2E0,-3.029246E-2,1.12052105E-1,3.9875742E-2,-1.9022259E-1,9.538309E-2,-1.8410306E-1,7.3444396E-2,-7.719214E-2,-1.9797694E-2,-1.634695E-1],"split_indices":[0,0,0,0,0,0,2,3,0,5,5,2,0,5,0,2,3,0,0,0,0,0,0,0,0,0,0],"split_type":[0,0,0,0,0,0,0,0,0,0,0,0,0,0,0,0,0,0,0,0,0,0,0,0,0,0,0],"sum_hessian":[4.1577E1,7.8131433E0,3.3763855E1,2.6300941E1,7.4629154E0,1.26360445E1,1.3664897E1,7.9105883E0,4.725456E0,7.2622075E0,6.4026895E0,4.6428103E0,3.2677782E0,3.770028E0,3.4921794E0,2.9143672E0,3.488322E0,1.1596082E0,3.483202E0,2.1711872E0,1.0965909E0,1.6158822E0,2.154146E0,1.1745147E0,1.7398525E0,1.0850166E0,2.4033055E0],"tree_param":{"num_deleted":"0","num_feature":"6","num_nodes":"27","size_leaf_vector":"1"}},{"base_weights":[1.76635E-1,4.1966084E-1,5.3280298E-2,1.4294565E-1,1.3329913E-1,1.18120044E-1,-2.9371196E-1,-5.941398E-2,1.0217688E-1,-1.07615516E-1,1.8418E-1,-1.1301328E-1,-2.8994062E-3,8.493845E-2,-2.4366565E-1,-7.776323E-2,2.4583271E-1,-1.0378436E-1,-9.8235734E-2,1.127261E-1,4.426256E-1,2.7935455E-2,-8.380926E-2,8.9139E-2,-1.3011538E-2,2.5699256E-2,1.7337301E-1],"categories":[],"categories_nodes":[],"categories_segments":[],"categories_sizes":[],"default_left":[0,0,0,0,0,0,0,0,0,0,0,0,0,0,0,0,0,0,0,0,0,0,0,0,0,0,0],"id":30,"left_children":[1,3,5,-1,7,9,11,-1,-1,13,15,-1,-1,-1,17,-1,19,-1,21,23,25,-1,-1,-1,-1,-1,-1],"loss_changes":[1.2279279E0,1.6261315E-1,6.828829E-1,0E0,3.2085723E-1,3.9243102E-1,1.1005747E-1,0E0,0E0,4.032669E-1,6.0222137E-1,0E0,0E0,0E0,4.3388247E-2,0E0,4.16564E-1,0E0,1.4885929E-1,3.572814E-1,2.809627E-1,0E0,0E0,0E0,0E0,0E0,0E0],"parents":[2147483647,0,0,1,1,2,2,4,4,5,5,6,6,9,9,10,10,14,14,16,16,18,18,19,19,20,20],"right_children":[2,4,6,-1,8,10,12,-1,-1,14,16,-1,-1,-1,18,-1,20,-1,22,24,26,-1,-1,-1,-1,-1,-1],"split_conditions":[6.6E1,6.4E1,8.7E1,1.4294565E-1,6.2E1,2E0,5.6E1,-5.941398E-2,1.0217688E-1,2E1,2E1,-1.1301328E-1,-2.8994062E-3,8.493845E-2,8.4E1,-7.776323E-2,5.2E1,-1.0378436E-1,5.3E1,2.9E1,7.6E1,2.7935455E-2,-8.380926E-2,8.9139E-2,-1.3011538E-2,2.5699256E-2,1.7337301E-1],"split_indices":[0,2,0,0,5,3,5,0,0,5,5,0,0,0,0,0,2,0,2,5,0,0,0,0,0,0,0],"split_type":[0,0,0,0,0,0,0,0,0,0,0,0,0,0,0,0,0,0,0,0,0,0,0,0,0,0,0],"sum_hessian":[4.07063E1,1.2896447E1,2.7809853E1,1.0207064E1,2.689384E0,2.3987148E1,3.822703E0,1.0521525E0,1.6372313E0,5.2880683E0,1.8699081E1,2.70583E0,1.1168728E0,1.0865054E0,4.201563E0,1.8915024E0,1.6807579E1,1.6572258E0,2.5443368E0,1.0964342E1,5.8432364E0,1.4735248E0,1.070812E0,4.6122475E0,6.352094E0,2.0547607E0,3.788476E0],"tree_param":{"num_deleted":"0","num_feature":"6","num_nodes":"27","size_leaf_vector":"1"}},{"base_weights":[-3.9453503E-1,-1.4344043E-1,-1.7539908E-1,-1.13283925E-1,2.7561147E-2,6.914158E-2,-8.625056E-2],"categories":[],"categories_nodes":[],"categories_segments":[],"categories_sizes":[],"default_left":[0,0,0,0,0,0,0],"id":31,"left_children":[1,-1,3,-1,5,-1,-1],"loss_changes":[2.7951932E-1,0E0,3.0003482E-1,0E0,3.5100114E-1,0E0,0E0],"parents":[2147483647,0,0,2,2,4,4],"right_children":[2,-1,4,-1,6,-1,-1],"split_conditions":[5.7E1,-1.4344043E-1,5.9E1,-1.13283925E-1,4E0,6.914158E-2,-8.625056E-2],"split_indices":[2,0,5,0,3,0,0],"split_type":[0,0,0,0,0,0,0],"sum_hessian":[1.8835695E1,1.2778737E1,6.0569577E0,2.6030004E0,3.4539573E0,2.2642174E0,1.18974E0],"tree_param":{"num_deleted":"0","num_feature":"6","num_nodes":"7","size_leaf_vector":"1"}},{"base_weights":[1.2187646E-2,1.16502255E-1,-1.351476E-1,3.1332526E-2,4.0512618E-1,-1.0512191E-1,8.196366E-2,1.3182183E-1,3.975596E-2,2.4588966E-1,-7.971819E-2,-3.4698725E-2,2.999583E-1,-1.0752894E-1,-2.2526842E-2,1.387957E-1,1.9787973E-2,4.1391537E-2,-5.9345268E-2],"categories":[],"categories_nodes":[],"categories_segments":[],"categories_sizes":[],"default_left":[0,0,0,0,0,0,0,0,0,0,0,0,0,0,0,0,0,0,0],"id":32,"left_children":[1,3,-1,5,7,-1,9,-1,-1,11,13,-1,15,-1,17,-1,-1,-1,-1],"loss_changes":[1.8704911E0,7.624332E-1,0E0,5.202552E-1,8.127093E-3,0E0,6.361816E-1,0E0,0E0,2.6530015E-1,1.9065198E-1,0E0,3.707506E-1,0E0,3.4834626E-1,0E0,0E0,0E0,0E0],"parents":[2147483647,0,0,1,1,3,3,4,4,6,6,9,9,10,10,12,12,14,14],"right_children":[2,4,-1,6,8,-1,10,-1,-1,12,14,-1,16,-1,18,-1,-1,-1,-1],"split_conditions":[1E0,8.7E1,-1.351476E-1,6.6E1,5.6E1,-1.0512191E-1,8.6E1,1.3182183E-1,3.975596E-2,1.3E1,1.5E1,-3.4698725E-2,3E0,-1.0752894E-1,4E1,1.387957E-1,1.9787973E-2,4.1391537E-2,-5.9345268E-2],"split_indices":[1,0,0,0,5,0,0,0,0,2,2,0,3,0,2,0,0,0,0],"split_type":[0,0,0,0,0,0,0,0,0,0,0,0,0,0,0,0,0,0,0],"sum_hessian":[3.6667797E1,3.0532269E1,6.1355295E0,2.4431393E1,6.100876E0,2.16762E0,2.2263773E1,4.8758707E0,1.2250047E0,1.0796546E1,1.1467227E1,1.2563391E0,9.540207E0,1.0556254E0,1.0411601E1,5.0511146E0,4.4890924E0,5.5462627E0,4.865339E0],"tree_param":{"num_deleted":"0","num_feature":"6","num_nodes":"19","size_leaf_vector":"1"}},{"base_weights":[1.5515976E-1,3.9359862E-1,4.782986E-2,1.3823105E-1,1.05464526E-1,1.0154237E-1,-2.6410767E-1,-6.1138034E-2,9.586424E-2,-1.9949393E-1,1.4091016E-1,-1.05103314E-1,-2.1432494E-3,-8.082057E-2,-1.2318505E-2,3.1051198E-1,2.7668938E-2,4.8086902E-1,8.249234E-2,-2.6485783E-1,1.8033168E-1,2.9892642E-2,1.7460832E-1,-5.1945724E-2,1.10986136E-1,-1.0606413E-1,1.0727192E-2,-6.2760934E-2,9.359906E-2],"categories":[],"categories_nodes":[],"categories_segments":[],"categories_sizes":[],"default_left":[0,0,0,0,0,0,0,0,0,0,0,0,0,0,0,0,0,0,0,0,0,0,0,0,0,0,0,0,0],"id":33,"left_children":[1,3,5,-1,7,9,11,-1,-1,13,15,-1,-1,-1,-1,17,19,21,23,25,27,-1,-1,-1,-1,-1,-1,-1,-1],"loss_changes":[9.418744E-1,1.7425811E-1,4.7962573E-1,0E0,2.951007E-1,3.0990338E-1,9.16228E-2,0E0,0E0,2.397962E-2,4.0652236E-1,0E0,0E0,0E0,0E0,2.9267466E-1,6.7557186E-1,1.2287068E-1,4.216299E-1,1.5197E-1,5.6955314E-1,0E0,0E0,0E0,0E0,0E0,0E0,0E0,0E0],"parents":[2147483647,0,0,1,1,2,2,4,4,5,5,6,6,9,9,10,10,15,15,16,16,17,17,18,18,19,19,20,20],"right_children":[2,4,6,-1,8,10,12,-1,-1,14,16,-1,-1,-1,-1,18,20,22,24,26,28,-1,-1,-1,-1,-1,-1,-1,-1],"split_conditions":[6.6E1,6.4E1,8.7E1,1.3823105E-1,6.2E1,1.9E1,5.6E1,-6.1138034E-2,9.586424E-2,8.6E1,2.9E1,-1.05103314E-1,-2.1432494E-3,-8.082057E-2,-1.2318505E-2,3.6E1,3.7E1,2.6E1,5.1E1,5.9E1,2E0,2.9892642E-2,1.7460832E-1,-5.1945724E-2,1.10986136E-1,-1.0606413E-1,1.0727192E-2,-6.2760934E-2,9.359906E-2],"split_indices":[0,2,0,0,5,5,5,0,0,0,5,0,0,0,0,2,2,5,2,5,3,0,0,0,0,0,0,0,0],"split_type":[0,0,0,0,0,0,0,0,0,0,0,0,0,0,0,0,0,0,0,0,0,0,0,0,0,0,0,0,0],"sum_hessian":[3.653964E1,1.0514329E1,2.6025309E1,8.040685E0,2.473644E0,2.2777697E1,3.247612E0,1.0315541E0,1.44209E0,2.1638448E0,2.0613852E1,2.1594884E0,1.0881236E0,1.0153849E0,1.14846E0,7.5556645E0,1.3058187E1,3.6899512E0,3.8657131E0,4.2258487E0,8.832338E0,1.1900676E0,2.4998837E0,2.2565615E0,1.6091516E0,3.1271727E0,1.0986758E0,2.0824509E0,6.7498875E0],"tree_param":{"num_deleted":"0","num_feature":"6","num_nodes":"29","size_leaf_vector":"1"}},{"base_weights":[-3.7117097E-1,-1.4026858E-1,-1.4528763E-1,-1.07969895E-1,5.2940402E-2,7.300477E-2,-7.985498E-2],"categories":[],"categories_nodes":[],"categories_segments":[],"categories_sizes":[],"default_left":[0,0,0,0,0,0,0],"id":34,"left_children":[1,-1,3,-1,5,-1,-1],"loss_changes":[2.9750204E-1,0E0,2.9433253E-1,0E0,3.2214358E-1,0E0,0E0],"parents":[2147483647,0,0,2,2,4,4],"right_children":[2,-1,4,-1,6,-1,-1],"split_conditions":[5.7E1,-1.4026858E-1,5.9E1,-1.07969895E-1,8.8E1,7.300477E-2,-7.985498E-2],"split_indices":[2,0,5,0,5,0,0],"split_type":[0,0,0,0,0,0,0],"sum_hessian":[1.5783667E1,1.0312919E1,5.4707475E0,2.2352092E0,3.235538E0,2.1751533E0,1.0603849E0],"tree_param":{"num_deleted":"0","num_feature":"6","num_nodes":"7","size_leaf_vector":"1"}},{"base_weights":[1.1983007E-2,1.0439917E-1,-1.3026363E-1,1.4962387E-1,-1.0439261E-1,7.000766E-2,1.3002442E-1,-9.131986E-2,1.1464795E-1,1.6182753E-1,-9.5613845E-2,7.338221E-2,-1.907864E-2],"categories":[],"categories_nodes":[],"categories_segments":[],"categories_sizes":[],"default_left":[0,0,0,0,0,0,0,0,0,0,0,0,0],"id":35,"left_children":[1,3,-1,5,-1,7,-1,-1,9,11,-1,-1,-1],"loss_changes":[1.4388894E0,6.413223E-1,0E0,5.7708657E-1,0E0,4.0572286E-1,0E0,0E0,4.7173288E-1,3.7375218E-1,0E0,0E0,0E0],"parents":[2147483647,0,0,1,1,3,3,5,5,8,8,9,9],"right_children":[2,4,-1,6,-1,8,-1,-1,10,12,-1,-1,-1],"split_conditions":[1E0,6.5E1,-1.3026363E-1,8.7E1,-1.0439261E-1,1.2E1,1.3002442E-1,-9.131986E-2,4E0,5.2E1,-9.5613845E-2,7.338221E-2,-1.907864E-2],"split_indices":[1,5,0,0,0,2,0,0,3,2,0,0,0],"split_type":[0,0,0,0,0,0,0,0,0,0,0,0,0],"sum_hessian":[3.2794994E1,2.780254E1,4.9924536E0,2.5884108E1,1.9184337E0,2.1186905E1,4.6972017E0,1.6371183E0,1.9549788E1,1.8195442E1,1.3543454E0,1.3246102E1,4.949339E0],"tree_param":{"num_deleted":"0","num_feature":"6","num_nodes":"13","size_leaf_vector":"1"}},{"base_weights":[1.3912353E-1,3.6811593E-1,4.5222607E-2,1.335411E-1,8.513778E-2,1.7396299E-3,1.11446194E-1,-6.12612E-2,9.086776E-2,-4.3424692E-2,1.07076995E-1,-9.102413E-2,1.0262214E-1,3.8320303E-2,-3.2451013E-1,-1.10860914E-1,4.0841773E-2,-1.22403264E-1,9.831327E-3],"categories":[],"categories_nodes":[],"categories_segments":[],"categories_sizes":[],"default_left":[0,0,0,0,0,0,0,0,0,0,0,0,0,0,0,0,0,0,0],"id":36,"left_children":[1,3,5,-1,7,9,-1,-1,-1,11,-1,13,-1,15,17,-1,-1,-1,-1],"loss_changes":[7.137652E-1,1.7435277E-1,3.5729343E-1,0E0,2.7103022E-1,3.8875237E-1,0E0,0E0,0E0,4.2628294E-1,0E0,6.1515445E-1,0E0,5.983731E-1,2.2877342E-1,0E0,0E0,0E0,0E0],"parents":[2147483647,0,0,1,1,2,2,4,4,5,5,9,9,11,11,13,13,14,14],"right_children":[2,4,6,-1,8,10,-1,-1,-1,12,-1,14,-1,16,18,-1,-1,-1,-1],"split_conditions":[6.6E1,6.4E1,4E0,1.335411E-1,6.2E1,1E0,1.11446194E-1,-6.12612E-2,9.086776E-2,8.8E1,1.07076995E-1,4.3E1,1.0262214E-1,1.9E1,5.8E1,-1.10860914E-1,4.0841773E-2,-1.22403264E-1,9.831327E-3],"split_indices":[0,2,3,0,5,4,0,0,0,5,0,5,0,5,2,0,0,0,0],"split_type":[0,0,0,0,0,0,0,0,0,0,0,0,0,0,0,0,0,0,0],"sum_hessian":[3.2968567E1,8.738378E0,2.4230188E1,6.418378E0,2.3199995E0,2.2267778E1,1.9624099E0,1.0229644E0,1.2970352E0,2.053441E1,1.7333672E0,1.8957512E1,1.5769001E0,1.2737297E1,6.2202144E0,1.9265937E0,1.0810703E1,4.9267807E0,1.2934335E0],"tree_param":{"num_deleted":"0","num_feature":"6","num_nodes":"19","size_leaf_vector":"1"}},{"base_weights":[-3.468428E-1,-1.374227E-1,-1.1815166E-1,-9.9836975E-2,5.9504338E-2,8.171028E-2,-8.310352E-2],"categories":[],"categories_nodes":[],"categories_segments":[],"categories_sizes":[],"default_left":[0,0,0,0,0,0,0],"id":37,"left_children":[1,-1,3,-1,5,-1,-1],"loss_changes":[3.1091774E-1,0E0,2.5024733E-1,0E0,3.730702E-1,0E0,0E0],"parents":[2147483647,0,0,2,2,4,4],"right_children":[2,-1,4,-1,6,-1,-1],"split_conditions":[1E0,-1.374227E-1,5.7E1,-9.9836975E-2,6.5E1,8.171028E-2,-8.310352E-2],"split_indices":[1,0,2,0,2,0,0],"split_type":[0,0,0,0,0,0,0],"sum_hessian":[1.3350216E1,8.306833E0,5.043383E0,1.8885143E0,3.1548686E0,2.0492444E0,1.1056243E0],"tree_param":{"num_deleted":"0","num_feature":"6","num_nodes":"7","size_leaf_vector":"1"}},{"base_weights":[8.244955E-3,8.9690514E-2,-1.25025E-1,1.3080783E-1,-9.840396E-2,6.027638E-2,1.2363139E-1,-2.9067082E-2,2.6698264E-1,7.454319E-2,-9.921293E-2,1.0567692E-1,1.5622874E-2,3.2200173E-2,-5.327981E-2],"categories":[],"categories_nodes":[],"categories_segments":[],"categories_sizes":[],"default_left":[0,0,0,0,0,0,0,0,0,0,0,0,0,0,0],"id":38,"left_children":[1,3,-1,5,-1,7,-1,9,11,-1,13,-1,-1,-1,-1],"loss_changes":[1.0929835E0,4.9658015E-1,0E0,4.6645853E-1,0E0,3.9502788E-1,0E0,3.2725725E-1,9.942824E-2,0E0,2.3151504E-1,0E0,0E0,0E0,0E0],"parents":[2147483647,0,0,1,1,3,3,5,5,7,7,8,8,10,10],"right_children":[2,4,-1,6,-1,8,-1,10,12,-1,14,-1,-1,-1,-1],"split_conditions":[1E0,6.5E1,-1.25025E-1,8.7E1,-9.840396E-2,4.5E1,1.2363139E-1,1.9E1,5.2E1,7.454319E-2,2E0,1.0567692E-1,1.5622874E-2,3.2200173E-2,-5.327981E-2],"split_indices":[1,5,0,0,0,5,0,5,2,0,3,0,0,0,0],"split_type":[0,0,0,0,0,0,0,0,0,0,0,0,0,0,0],"sum_hessian":[2.9496517E1,2.541498E1,4.0815377E0,2.3762701E1,1.6522782E0,1.9969814E1,3.7928872E0,1.4543249E1,5.4265656E0,2.4211698E0,1.212208E1,3.4274542E0,1.9991112E0,3.233245E0,8.888835E0],"tree_param":{"num_deleted":"0","num_feature":"6","num_nodes":"15","size_leaf_vector":"1"}},{"base_weights":[1.2261519E-1,5.825092E-2,1.2952521E-1,-7.4008238E-3,1.22857675E-1,-5.9861623E-2,1.0847192E-1,6.941093E-2,-3.0833045E-1,2.9789117E-1,-8.173509E-2,-3.7069127E-1,7.6240273E-3,2.2602301E-2,1.4478858E-1,-1.0533257E-1,4.597007E-3,-1.399224E-1,-2.873669E-2],"categories":[],"categories_nodes":[],"categories_segments":[],"categories_sizes":[],"default_left":[0,0,0,0,0,0,0,0,0,0,0,0,0,0,0,0,0,0,0],"id":39,"left_children":[1,3,-1,5,-1,7,-1,9,11,13,15,17,-1,-1,-1,-1,-1,-1,-1],"loss_changes":[5.938865E-1,6.2353563E-1,0E0,4.7946087E-1,0E0,7.140861E-1,0E0,5.424055E-1,1.6684592E-1,2.1804905E-1,2.6195088E-1,1.2470603E-1,0E0,0E0,0E0,0E0,0E0,0E0,0E0],"parents":[2147483647,0,0,1,1,3,3,5,5,7,7,8,8,9,9,10,10,11,11],"right_children":[2,4,-1,6,-1,8,-1,10,12,14,16,18,-1,-1,-1,-1,-1,-1,-1],"split_conditions":[4E0,1E0,1.2952521E-1,8.8E1,1.22857675E-1,4.3E1,1.0847192E-1,7.8E1,6.5E1,7.5E1,2.2E1,6.3E1,7.6240273E-3,2.2602301E-2,1.4478858E-1,-1.0533257E-1,4.597007E-3,-1.399224E-1,-2.873669E-2],"split_indices":[3,4,0,5,0,5,0,0,2,0,5,5,0,0,0,0,0,0,0],"split_type":[0,0,0,0,0,0,0,0,0,0,0,0,0,0,0,0,0,0,0],"sum_hessian":[3.0111607E1,2.5906181E1,4.2054243E0,2.265162E1,3.2545605E0,2.0565392E1,2.0862305E0,1.4001422E1,6.5639687E0,5.188034E0,8.813388E0,5.437292E0,1.1266767E0,2.9917495E0,2.1962845E0,1.6411334E0,7.1722546E0,3.5163295E0,1.9209625E0],"tree_param":{"num_deleted":"0","num_feature":"6","num_nodes":"19","size_leaf_vector":"1"}},{"base_weights":[-3.2250512E-1,-1.3379398E-1,-9.1668285E-2,-9.253059E-2,6.765868E-2,6.2844306E-2,-5.056755E-2,5.5443615E-2,-7.836589E-2],"categories":[],"categories_nodes":[],"categories_segments":[],"categories_sizes":[],"default_left":[0,0,0,0,0,0,0,0,0],"id":40,"left_children":[1,-1,3,-1,5,-1,7,-1,-1],"loss_changes":[3.1349325E-1,0E0,2.1398334E-1,0E0,7.83804E-2,0E0,1.9754209E-1,0E0,0E0],"parents":[2147483647,0,0,2,2,4,4,6,6],"right_children":[2,-1,4,-1,6,-1,8,-1,-1],"split_conditions":[1E0,-1.3379398E-1,5.7E1,-9.253059E-2,3.5E1,6.2844306E-2,6.2E1,5.5443615E-2,-7.836589E-2],"split_indices":[1,0,2,0,0,0,2,0,0],"split_type":[0,0,0,0,0,0,0,0,0],"sum_hessian":[1.1433127E1,6.8415594E0,4.5915685E0,1.5486883E0,3.04288E0,1.0324742E0,2.0104058E0,1.0074087E0,1.002997E0],"tree_param":{"num_deleted":"0","num_feature":"6","num_nodes":"9","size_leaf_vector":"1"}},{"base_weights":[6.996872E-3,7.893298E-2,-1.1949976E-1,1.14553355E-1,-9.280869E-2,1.4931625E-1,-8.5617535E-2,-6.2586814E-2,1.8879262E-1,2.5265127E-1,1.4532597E-2,4.4452418E-2,1.1513421E-1,4.049424E-2,-3.6153987E-2],"categories":[],"categories_nodes":[],"categories_segments":[],"categories_sizes":[],"default_left":[0,0,0,0,0,0,0,0,0,0,0,0,0,0,0],"id":41,"left_children":[1,3,-1,5,-1,7,-1,-1,9,11,13,-1,-1,-1,-1],"loss_changes":[8.4403443E-1,3.7434304E-1,0E0,3.6480373E-1,0E0,3.499254E-1,0E0,0E0,2.2243816E-1,1.4601326E-1,1.22161694E-1,0E0,0E0,0E0,0E0],"parents":[2147483647,0,0,1,1,3,3,5,5,8,8,9,9,10,10],"right_children":[2,4,-1,6,-1,8,-1,-1,10,12,14,-1,-1,-1,-1],"split_conditions":[1E0,4E0,-1.1949976E-1,6.5E1,-9.280869E-2,1.2E1,-8.5617535E-2,-6.2586814E-2,5.2E1,3.7E1,3.7E1,4.4452418E-2,1.1513421E-1,4.049424E-2,-3.6153987E-2],"split_indices":[1,3,0,5,0,2,0,0,2,5,5,0,0,0,0],"split_type":[0,0,0,0,0,0,0,0,0,0,0,0,0,0,0],"sum_hessian":[2.6868784E1,2.350286E1,3.365924E0,2.2173729E1,1.3291297E0,2.0977077E1,1.1966516E0,1.6580956E0,1.9318983E1,1.3808808E1,5.5101743E0,8.870935E0,4.9378734E0,2.9127543E0,2.5974202E0],"tree_param":{"num_deleted":"0","num_feature":"6","num_nodes":"15","size_leaf_vector":"1"}},{"base_weights":[1.1233162E-1,5.501307E-2,1.2306903E-1,-4.7685485E-3,1.1778199E-1,-5.000334E-2,1.0094646E-1,6.6627935E-2,-2.8723344E-1,-8.870453E-2,1.3536689E-1,-3.4548724E-1,3.0330103E-3,9.766915E-2,-1.7820455E-3,-1.3154568E-1,-2.7311876E-2],"categories":[],"categories_nodes":[],"categories_segments":[],"categories_sizes":[],"default_left":[0,0,0,0,0,0,0,0,0,0,0,0,0,0,0,0,0],"id":42,"left_children":[1,3,-1,5,-1,7,-1,9,11,-1,13,15,-1,-1,-1,-1,-1],"loss_changes":[4.674128E-1,5.108616E-1,0E0,3.6282262E-1,0E0,5.908029E-1,0E0,4.0520704E-1,1.2471068E-1,0E0,3.5161304E-1,9.922385E-2,0E0,0E0,0E0,0E0,0E0],"parents":[2147483647,0,0,1,1,3,3,5,5,7,7,8,8,10,10,11,11],"right_children":[2,4,-1,6,-1,8,-1,10,12,-1,14,16,-1,-1,-1,-1,-1],"split_conditions":[4E0,1E0,1.2306903E-1,8.8E1,1.1778199E-1,4.3E1,1.0094646E-1,1.9E1,6.5E1,-8.870453E-2,7.8E1,6.3E1,3.0330103E-3,9.766915E-2,-1.7820455E-3,-1.3154568E-1,-2.7311876E-2],"split_indices":[3,4,0,5,0,5,0,5,2,0,0,5,0,0,0,0,0],"split_type":[0,0,0,0,0,0,0,0,0,0,0,0,0,0,0,0,0],"sum_hessian":[2.7695618E1,2.4220106E1,3.475512E0,2.1413961E1,2.8061447E0,1.9661264E1,1.7526973E0,1.3663107E1,5.9981575E0,1.6523535E0,1.2010754E1,4.880153E0,1.118004E0,4.5638885E0,7.446865E0,3.04423E0,1.8359233E0],"tree_param":{"num_deleted":"0","num_feature":"6","num_nodes":"17","size_leaf_vector":"1"}},{"base_weights":[-2.9764965E-1,-1.3025174E-1,-6.0886852E-2,1.4384077E-1,-9.445423E-2,6.260405E-2,1.0443546E-2],"categories":[],"categories_nodes":[],"categories_segments":[],"categories_sizes":[],"default_left":[0,0,0,0,0,0,0],"id":43,"left_children":[1,-1,3,5,-1,-1,-1],"loss_changes":[3.2630146E-1,0E0,3.1327114E-1,1.776205E-2,0E0,0E0,0E0],"parents":[2147483647,0,0,2,2,3,3],"right_children":[2,-1,4,6,-1,-1,-1],"split_conditions":[6.1E1,-1.3025174E-1,8.8E1,7.1E1,-9.445423E-2,6.260405E-2,1.0443546E-2],"split_indices":[5,0,5,5,0,0,0],"split_type":[0,0,0,0,0,0,0],"sum_hessian":[9.9127E0,5.758456E0,4.154243E0,2.5401433E0,1.6140999E0,1.0197256E0,1.5204178E0],"tree_param":{"num_deleted":"0","num_feature":"6","num_nodes":"7","size_leaf_vector":"1"}},{"base_weights":[9.645385E-4,6.468491E-2,-1.14039816E-1,1.0657742E-2,9.632824E-2,-8.3406284E-2,4.4272464E-2,1.8645152E-1,-8.6613424E-2,3.629581E-2,1.1690143E-1,-2.0989934E-1,5.0211143E-2,9.787331E-2,-6.116441E-2,2.7040338E-2,-9.8149285E-2,5.9860278E-2,-6.329599E-2],"categories":[],"categories_nodes":[],"categories_segments":[],"categories_sizes":[],"default_left":[0,0,0,0,0,0,0,0,0,0,0,0,0,0,0,0,0,0,0],"id":44,"left_children":[1,3,-1,5,-1,-1,7,9,11,13,-1,15,17,-1,-1,-1,-1,-1,-1],"loss_changes":[6.4733565E-1,3.1278306E-1,0E0,2.05294E-1,0E0,0E0,3.6369318E-1,2.6869497E-1,1.8608928E-1,5.145108E-1,0E0,2.2888562E-1,2.659597E-1,0E0,0E0,0E0,0E0,0E0,0E0],"parents":[2147483647,0,0,1,1,3,3,6,6,7,7,8,8,9,9,11,11,12,12],"right_children":[2,4,-1,6,-1,-1,8,10,12,14,-1,16,18,-1,-1,-1,-1,-1,-1],"split_conditions":[1E0,8.7E1,-1.14039816E-1,6.6E1,9.632824E-2,-8.3406284E-2,8.6E1,7.8E1,3E0,7.5E1,1.1690143E-1,2E0,4.5E1,9.787331E-2,-6.116441E-2,2.7040338E-2,-9.8149285E-2,5.9860278E-2,-6.329599E-2],"split_indices":[1,0,0,0,0,0,0,0,3,0,0,3,2,0,0,0,0,0,0],"split_type":[0,0,0,0,0,0,0,0,0,0,0,0,0,0,0,0,0,0,0],"sum_hessian":[2.4644684E1,2.1825651E1,2.8190343E0,1.8887493E1,2.938158E0,1.2116027E0,1.767589E1,8.268945E0,9.406945E0,5.4331136E0,2.8358312E0,4.6673493E0,4.739596E0,2.2991576E0,3.133956E0,1.3765842E0,3.290765E0,3.1658206E0,1.5737754E0],"tree_param":{"num_deleted":"0","num_feature":"6","num_nodes":"19","size_leaf_vector":"1"}},{"base_weights":[9.75014E-2,4.4304784E-2,1.1761399E-1,-1.0937789E-2,1.1240631E-1,-5.2771956E-2,9.559401E-2,5.119043E-2,-2.6850346E-1,-8.406136E-2,1.123975E-1,-3.214581E-1,1.5542528E-4,5.126999E-4,9.724099E-2,-4.337255E-2,-1.514173E-1],"categories":[],"categories_nodes":[],"categories_segments":[],"categories_sizes":[],"default_left":[0,0,0,0,0,0,0,0,0,0,0,0,0,0,0,0,0],"id":45,"left_children":[1,3,-1,5,-1,7,-1,9,11,-1,13,15,-1,-1,-1,-1,-1],"loss_changes":[3.9986777E-1,4.3633014E-1,0E0,3.0996558E-1,0E0,4.5612693E-1,0E0,3.185119E-1,9.382546E-2,0E0,2.961089E-1,1.0515112E-1,0E0,0E0,0E0,0E0,0E0],"parents":[2147483647,0,0,1,1,3,3,5,5,7,7,8,8,10,10,11,11],"right_children":[2,4,-1,6,-1,8,-1,10,12,-1,14,16,-1,-1,-1,-1,-1],"split_conditions":[4E0,1E0,1.1761399E-1,8.8E1,1.1240631E-1,4.3E1,9.559401E-2,1.9E1,6.5E1,-8.406136E-2,5.2E1,5.5E1,1.5542528E-4,5.126999E-4,9.724099E-2,-4.337255E-2,-1.514173E-1],"split_indices":[3,4,0,5,0,5,0,5,2,0,2,2,0,0,0,0,0],"split_type":[0,0,0,0,0,0,0,0,0,0,0,0,0,0,0,0,0],"sum_hessian":[2.562853E1,2.2682377E1,2.946154E0,2.0261406E1,2.4209697E0,1.8724579E1,1.5368278E0,1.3150149E1,5.574429E0,1.4923118E0,1.1657838E1,4.494757E0,1.0796717E0,8.317738E0,3.3400998E0,3.1975043E0,1.2972529E0],"tree_param":{"num_deleted":"0","num_feature":"6","num_nodes":"17","size_leaf_vector":"1"}},{"base_weights":[-2.712612E-1,-1.2640004E-1,-3.147076E-2,-7.970154E-2,1.1113065E-1,5.459751E-2,3.7732592E-3],"categories":[],"categories_nodes":[],"categories_segments":[],"categories_sizes":[],"default_left":[0,0,0,0,0,0,0],"id":46,"left_children":[1,-1,3,-1,5,-1,-1],"loss_changes":[3.3332658E-1,0E0,1.8943466E-1,0E0,2.3418318E-2,0E0,0E0],"parents":[2147483647,0,0,2,2,4,4],"right_children":[2,-1,4,-1,6,-1,-1],"split_conditions":[1E0,-1.2640004E-1,5.7E1,-7.970154E-2,3.8E1,5.459751E-2,3.7732592E-3],"split_indices":[1,0,2,0,0,0,0],"split_type":[0,0,0,0,0,0,0],"sum_hessian":[8.63117E0,4.843061E0,3.7881095E0,1.1069976E0,2.681112E0,1.067168E0,1.6139439E0],"tree_param":{"num_deleted":"0","num_feature":"6","num_nodes":"7","size_leaf_vector":"1"}},{"base_weights":[6.838972E-4,5.766695E-2,-1.0832917E-1,8.88914E-2,-8.141732E-2,3.5278615E-2,1.0687972E-1,-7.123173E-2,7.2016515E-2,2.684877E-1,3.237927E-4,-2.3982463E-2,1.18615545E-1,2.6908517E-2,-5.893479E-2],"categories":[],"categories_nodes":[],"categories_segments":[],"categories_sizes":[],"default_left":[0,0,0,0,0,0,0,0,0,0,0,0,0,0,0],"id":47,"left_children":[1,3,-1,5,-1,7,-1,-1,9,11,13,-1,-1,-1,-1],"loss_changes":[5.104951E-1,2.4382612E-1,0E0,2.7818143E-1,0E0,1.974942E-1,0E0,0E0,2.3422444E-1,2.281897E-1,2.4955694E-1,0E0,0E0,0E0,0E0],"parents":[2147483647,0,0,1,1,3,3,5,5,8,8,9,9,10,10],"right_children":[2,4,-1,6,-1,8,-1,-1,10,12,14,-1,-1,-1,-1],"split_conditions":[1E0,6.5E1,-1.0832917E-1,8.7E1,-8.141732E-2,1.2E1,1.0687972E-1,-7.123173E-2,7.6E1,6.9E1,5.1E1,-2.3982463E-2,1.18615545E-1,2.6908517E-2,-5.893479E-2],"split_indices":[1,5,0,0,0,2,0,0,0,0,2,0,0,0,0],"split_type":[0,0,0,0,0,0,0,0,0,0,0,0,0,0,0],"sum_hessian":[2.2752726E1,2.0382883E1,2.3698437E0,1.9282974E1,1.0999087E0,1.7005123E1,2.2778518E0,1.370249E0,1.5634873E1,3.44607E0,1.2188804E1,1.0187802E0,2.4272897E0,8.756093E0,3.4327104E0],"tree_param":{"num_deleted":"0","num_feature":"6","num_nodes":"15","size_leaf_vector":"1"}},{"base_weights":[8.67164E-2,3.748543E-2,1.1237412E-1,-1.3482076E-2,1.0729832E-1,-5.0330505E-2,8.868477E-2,4.6693783E-2,-2.5077868E-1,2.1926448E-1,-6.965494E-2,-8.312167E-2,-1.06752746E-1,6.040951E-3,1.03963904E-1,-7.588372E-2,9.323439E-3,1.6867934E-2,-4.8078213E-2],"categories":[],"categories_nodes":[],"categories_segments":[],"categories_sizes":[],"default_left":[0,0,0,0,0,0,0,0,0,0,0,0,0,0,0,0,0,0,0],"id":48,"left_children":[1,3,-1,5,-1,7,-1,9,11,13,15,17,-1,-1,-1,-1,-1,-1,-1],"loss_changes":[3.3956587E-1,3.7066117E-1,0E0,2.4613221E-1,0E0,3.811408E-1,0E0,2.892005E-1,8.232048E-2,1.383808E-1,1.7232946E-1,4.934261E-2,0E0,0E0,0E0,0E0,0E0,0E0,0E0],"parents":[2147483647,0,0,1,1,3,3,5,5,7,7,8,8,9,9,10,10,11,11],"right_children":[2,4,-1,6,-1,8,-1,10,12,14,16,18,-1,-1,-1,-1,-1,-1,-1],"split_conditions":[4E0,1E0,1.1237412E-1,8.8E1,1.0729832E-1,4.3E1,8.868477E-2,7.8E1,3E0,7.5E1,2.5E1,5.7E1,-1.06752746E-1,6.040951E-3,1.03963904E-1,-7.588372E-2,9.323439E-3,1.6867934E-2,-4.8078213E-2],"split_indices":[3,4,0,5,0,5,0,0,3,0,5,5,0,0,0,0,0,0,0],"split_type":[0,0,0,0,0,0,0,0,0,0,0,0,0,0,0,0,0,0,0],"sum_hessian":[2.3951426E1,2.14186E1,2.5328248E0,1.9303625E1,2.1149766E0,1.79955E1,1.3081238E0,1.2642917E1,5.3525834E0,4.7351317E0,7.9077854E0,2.7520752E0,2.6005082E0,2.2980762E0,2.4370556E0,2.2686927E0,5.639093E0,1.0772233E0,1.6748519E0],"tree_param":{"num_deleted":"0","num_feature":"6","num_nodes":"19","size_leaf_vector":"1"}},{"base_weights":[-2.4989128E-1,-1.2237066E-1,-1.792076E-2,1.4574236E-1,-8.107712E-2,5.73661E-2,1.4130993E-2],"categories":[],"categories_nodes":[],"categories_segments":[],"categories_sizes":[],"default_left":[0,0,0,0,0,0,0],"id":49,"left_children":[1,-1,3,5,-1,-1,-1],"loss_changes":[3.0973035E-1,0E0,2.2731702E-1,6.2894598E-3,0E0,0E0,0E0],"parents":[2147483647,0,0,2,2,3,3],"right_children":[2,-1,4,6,-1,-1,-1],"split_conditions":[6.1E1,-1.2237066E-1,8.8E1,7.1E1,-8.107712E-2,5.73661E-2,1.4130993E-2],"split_indices":[5,0,5,5,0,0,0],"split_type":[0,0,0,0,0,0,0],"sum_hessian":[7.6495695E0,4.0990233E0,3.5505462E0,2.4099207E0,1.1406255E0,1.007036E0,1.4028847E0],"tree_param":{"num_deleted":"0","num_feature":"6","num_nodes":"7","size_leaf_vector":"1"}},{"base_weights":[-1.0142534E-4,-1.0180202E-1,5.129659E-2,8.424634E-2,-8.147379E-2,3.56553E-2,1.0121492E-1,1.6051593E-1,-7.63267E-2,1.730151E-2,1.0996388E-1,-2.0405677E-1,8.222773E-2,8.71044E-2,-5.386221E-2,1.7564343E-2,-9.229985E-2,6.315259E-2,-4.8530877E-2],"categories":[],"categories_nodes":[],"categories_segments":[],"categories_sizes":[],"default_left":[0,0,0,0,0,0,0,0,0,0,0,0,0,0,0,0,0,0,0],"id":50,"left_children":[1,-1,3,5,-1,7,-1,9,11,13,-1,15,17,-1,-1,-1,-1,-1,-1],"loss_changes":[4.0388873E-1,0E0,2.3690584E-1,2.2189607E-1,0E0,2.5097603E-1,0E0,2.413603E-1,2.1279357E-1,3.7471434E-1,0E0,1.7167538E-1,1.9152726E-1,0E0,0E0,0E0,0E0,0E0,0E0],"parents":[2147483647,0,0,2,2,3,3,5,5,7,7,8,8,9,9,11,11,12,12],"right_children":[2,-1,4,6,-1,8,-1,10,12,14,-1,16,18,-1,-1,-1,-1,-1,-1],"split_conditions":[6.6E1,-1.0180202E-1,6.5E1,8.7E1,-8.147379E-2,8.6E1,1.0121492E-1,7.8E1,3E0,7.5E1,1.0996388E-1,2E0,4.5E1,8.71044E-2,-5.386221E-2,1.7564343E-2,-9.229985E-2,6.315259E-2,-4.8530877E-2],"split_indices":[0,0,5,0,0,0,0,0,3,0,0,3,2,0,0,0,0,0,0],"split_type":[0,0,0,0,0,0,0,0,0,0,0,0,0,0,0,0,0,0,0],"sum_hessian":[2.116549E1,2.0477395E0,1.911775E1,1.8018068E1,1.0996832E0,1.6073519E1,1.9445492E0,7.3948293E0,8.678689E0,5.00191E0,2.392919E0,4.647622E0,4.031067E0,1.8963665E0,3.1055434E0,1.437954E0,3.2096684E0,2.7319841E0,1.2990828E0],"tree_param":{"num_deleted":"0","num_feature":"6","num_nodes":"19","size_leaf_vector":"1"}},{"base_weights":[7.546494E-2,2.9773155E-2,1.072908E-1,-1.7040392E-2,1.0208951E-1,-2.075058E-1,4.5561142E-2,4.8179407E-2,-1.11715905E-1,-2.4320836E-1,1.2372608E-1,-9.346242E-2,-1.0915376E-2,1.8747476E-1,-5.9942838E-2,2.303841E-2,1.1057901E-1],"categories":[],"categories_nodes":[],"categories_segments":[],"categories_sizes":[],"default_left":[0,0,0,0,0,0,0,0,0,0,0,0,0,0,0,0,0],"id":51,"left_children":[1,3,-1,5,-1,7,9,-1,-1,11,13,-1,-1,15,-1,-1,-1],"loss_changes":[2.9321557E-1,3.1651622E-1,0E0,2.422791E-1,0E0,3.6390018E-1,3.8031963E-1,0E0,0E0,4.0143713E-2,3.0298096E-1,0E0,0E0,1.9763163E-1,0E0,0E0,0E0],"parents":[2147483647,0,0,1,1,3,3,5,5,6,6,9,9,10,10,13,13],"right_children":[2,4,-1,6,-1,8,10,-1,-1,12,14,-1,-1,16,-1,-1,-1],"split_conditions":[4E0,1E0,1.072908E-1,2E0,1.0208951E-1,7.6E1,2.6E1,4.8179407E-2,-1.11715905E-1,4.9E1,6.4E1,-9.346242E-2,-1.0915376E-2,5.2E1,-5.9942838E-2,2.303841E-2,1.1057901E-1],"split_indices":[3,4,0,3,0,0,5,0,0,2,2,0,0,2,0,0,0],"split_type":[0,0,0,0,0,0,0,0,0,0,0,0,0,0,0,0,0],"sum_hessian":[2.2568285E1,2.037456E1,2.1937258E0,1.8526676E1,1.8478842E0,4.010378E0,1.4516298E1,1.2486593E0,2.7617185E0,2.642494E0,1.1873804E1,1.605677E0,1.036817E0,1.0270644E1,1.6031603E0,7.258879E0,3.0117645E0],"tree_param":{"num_deleted":"0","num_feature":"6","num_nodes":"17","size_leaf_vector":"1"}},{"base_weights":[-2.2819372E-1,-1.1885367E-1,4.262572E-3,-8.702546E-2,4.5151427E-2,4.8922647E-2,-8.402609E-2],"categories":[],"categories_nodes":[],"categories_segments":[],"categories_sizes":[],"default_left":[0,0,0,0,0,0,0],"id":52,"left_children":[1,-1,3,5,-1,-1,-1],"loss_changes":[3.0830148E-1,0E0,7.027983E-2,2.0360193E-1,0E0,0E0,0E0],"parents":[2147483647,0,0,2,2,3,3],"right_children":[2,-1,4,6,-1,-1,-1],"split_conditions":[1E0,-1.1885367E-1,6.7E1,6.4E1,4.5151427E-2,4.8922647E-2,-8.402609E-2],"split_indices":[1,0,0,5,0,0,0],"split_type":[0,0,0,0,0,0,0],"sum_hessian":[6.8519545E0,3.5687044E0,3.28325E0,2.2707274E0,1.0125227E0,1.0568948E0,1.2138326E0],"tree_param":{"num_deleted":"0","num_feature":"6","num_nodes":"7","size_leaf_vector":"1"}},{"base_weights":[6.3237577E-4,4.903622E-2,-9.8793656E-2,8.05104E-2,-5.8686648E-2,-1.6296662E-2,1.8248792E-1,1.5070733E-1,-1.8503125E-1,9.281157E-2,3.455711E-2,-2.3107633E-2,2.390062E-1,-3.4415233E-1,3.8844038E-2,-5.7326015E-2,1.3727263E-1,1.0017184E-1,9.462008E-3,-3.47711E-2,-1.22925736E-1,1.0510601E-1,-2.0207677E-2],"categories":[],"categories_nodes":[],"categories_segments":[],"categories_sizes":[],"default_left":[0,0,0,0,0,0,0,0,0,0,0,0,0,0,0,0,0,0,0,0,0,0,0],"id":53,"left_children":[1,3,-1,5,-1,7,9,11,13,-1,15,-1,17,19,-1,-1,21,-1,-1,-1,-1,-1,-1],"loss_changes":[3.4922844E-1,1.6250475E-1,0E0,1.7666666E-1,0E0,3.080995E-1,1.5167513E-1,1.2998623E-1,3.145672E-1,0E0,1.4488955E-1,0E0,7.299006E-2,1.0245025E-2,0E0,0E0,2.0237577E-1,0E0,0E0,0E0,0E0,0E0,0E0],"parents":[2147483647,0,0,1,1,3,3,5,5,6,6,7,7,8,8,10,10,12,12,13,13,16,16],"right_children":[2,4,-1,6,-1,8,10,12,14,-1,16,-1,18,20,-1,-1,22,-1,-1,-1,-1,-1,-1],"split_conditions":[1E0,6.4E1,-9.8793656E-2,2.9E1,-5.8686648E-2,2.6E1,4.1E1,2E0,3.8E1,9.281157E-2,5E1,-2.3107633E-2,4.3E1,1.7E1,3.8844038E-2,-5.7326015E-2,4.1E1,1.0017184E-1,9.462008E-3,-3.47711E-2,-1.22925736E-1,1.0510601E-1,-2.0207677E-2],"split_indices":[1,5,0,5,0,5,2,3,2,0,2,0,2,2,0,0,5,0,0,0,0,0,0],"split_type":[0,0,0,0,0,0,0,0,0,0,0,0,0,0,0,0,0,0,0,0,0,0,0],"sum_hessian":[1.9855858E1,1.8058067E1,1.7977914E0,1.6594223E1,1.4638436E0,8.943947E0,7.650277E0,4.5487185E0,4.395228E0,3.5306346E0,4.1196423E0,1.3065783E0,3.24214E0,2.8560293E0,1.5391986E0,1.0195539E0,3.1000886E0,1.8064014E0,1.4357388E0,1.25527E0,1.6007593E0,1.1698341E0,1.9302543E0],"tree_param":{"num_deleted":"0","num_feature":"6","num_nodes":"23","size_leaf_vector":"1"}},{"base_weights":[6.700551E-2,2.4795853E-2,1.0212246E-1,-1.8171972E-2,9.7054005E-2,-1.8643674E-1,3.6702186E-2,4.3491386E-2,-1.0225635E-1,-2.159166E-1,1.0254353E-1,-8.432681E-2,-9.8244E-3,1.612101E-1,-5.5166434E-2,1.8109923E-2,1.0064038E-1],"categories":[],"categories_nodes":[],"categories_segments":[],"categories_sizes":[],"default_left":[0,0,0,0,0,0,0,0,0,0,0,0,0,0,0,0,0],"id":54,"left_children":[1,3,-1,5,-1,7,9,-1,-1,11,13,-1,-1,15,-1,-1,-1],"loss_changes":[2.4924444E-1,2.679945E-1,0E0,1.8043318E-1,0E0,2.9443315E-1,2.7183968E-1,0E0,0E0,3.1690896E-2,2.4115038E-1,0E0,0E0,1.7269462E-1,0E0,0E0,0E0],"parents":[2147483647,0,0,1,1,3,3,5,5,6,6,9,9,10,10,13,13],"right_children":[2,4,-1,6,-1,8,10,-1,-1,12,14,-1,-1,16,-1,-1,-1],"split_conditions":[4E0,1E0,1.0212246E-1,2E0,9.7054005E-2,7.6E1,2.6E1,4.3491386E-2,-1.0225635E-1,4.9E1,6.4E1,-8.432681E-2,-9.8244E-3,5.2E1,-5.5166434E-2,1.8109923E-2,1.0064038E-1],"split_indices":[3,4,0,3,0,0,5,0,0,2,2,0,0,2,0,0,0],"split_type":[0,0,0,0,0,0,0,0,0,0,0,0,0,0,0,0,0],"sum_hessian":[2.1329288E1,1.9421556E1,1.9077305E0,1.780031E1,1.6212479E0,3.7878394E0,1.401247E1,1.2233936E0,2.5644457E0,2.425813E0,1.1586658E1,1.3949025E0,1.0309104E0,9.979787E0,1.6068699E0,7.17437E0,2.8054173E0],"tree_param":{"num_deleted":"0","num_feature":"6","num_nodes":"17","size_leaf_vector":"1"}},{"base_weights":[-2.08559E-1,-1.1486682E-1,1.818384E-2,5.157199E-2,-8.784997E-2,-7.7536374E-2,3.7097853E-2],"categories":[],"categories_nodes":[],"categories_segments":[],"categories_sizes":[],"default_left":[0,0,0,0,0,0,0],"id":55,"left_children":[1,-1,3,-1,5,-1,-1],"loss_changes":[2.903727E-1,0E0,8.146014E-2,0E0,1.4277788E-1,0E0,0E0],"parents":[2147483647,0,0,2,2,4,4],"right_children":[2,-1,4,-1,6,-1,-1],"split_conditions":[6.1E1,-1.1486682E-1,3.5E1,5.157199E-2,8.5E1,-7.7536374E-2,3.7097853E-2],"split_indices":[5,0,0,0,0,0,0],"split_type":[0,0,0,0,0,0,0],"sum_hessian":[6.1698318E0,3.0987327E0,3.0710993E0,1.000042E0,2.0710573E0,1.0235246E0,1.0475326E0],"tree_param":{"num_deleted":"0","num_feature":"6","num_nodes":"7","size_leaf_vector":"1"}},{"base_weights":[-4.310144E-5,-9.297433E-2,4.4203524E-2,5.613576E-3,7.823067E-2,1.3165215E-1,-1.0213325E-1,1.6718749E-2,9.576652E-2,-2.0240851E-1,3.4449514E-2,6.967423E-2,-1.4062743E-1,-8.5994504E-2,-3.3255415E-3,4.8129883E-2,-5.1036477E-2,-6.657866E-2,4.3043527E-3],"categories":[],"categories_nodes":[],"categories_segments":[],"categories_sizes":[],"default_left":[0,0,0,0,0,0,0,0,0,0,0,0,0,0,0,0,0,0,0],"id":56,"left_children":[1,-1,3,5,-1,7,9,11,-1,13,15,-1,17,-1,-1,-1,-1,-1,-1],"loss_changes":[2.8461948E-1,0E0,1.5035304E-1,2.367119E-1,0E0,1.6742758E-1,1.3607746E-1,2.3696283E-1,0E0,8.67749E-2,1.5216981E-1,0E0,5.490677E-2,0E0,0E0,0E0,0E0,0E0,0E0],"parents":[2147483647,0,0,2,2,3,3,5,5,6,6,7,7,9,9,10,10,12,12],"right_children":[2,-1,4,6,-1,8,10,12,-1,14,16,-1,18,-1,-1,-1,-1,-1,-1],"split_conditions":[6.6E1,-9.297433E-2,8.7E1,8.6E1,7.823067E-2,7.8E1,3E0,7.5E1,9.576652E-2,4.7E1,4.5E1,6.967423E-2,3.6E1,-8.5994504E-2,-3.3255415E-3,4.8129883E-2,-5.1036477E-2,-6.657866E-2,4.3043527E-3],"split_indices":[0,0,0,0,0,0,3,0,0,2,2,0,2,0,0,0,0,0,0],"split_type":[0,0,0,0,0,0,0,0,0,0,0,0,0,0,0,0,0,0,0],"sum_hessian":[1.8759676E1,1.5937757E0,1.71659E1,1.5440472E1,1.7254282E0,7.013939E0,8.426533E0,5.0243797E0,1.9895592E0,4.5811977E0,3.845335E0,1.9193188E0,3.105061E0,2.8347952E0,1.7464023E0,2.5132997E0,1.3320353E0,1.7532583E0,1.3518028E0],"tree_param":{"num_deleted":"0","num_feature":"6","num_nodes":"19","size_leaf_vector":"1"}},{"base_weights":[5.806544E-2,1.8386604E-2,9.755839E-2,-2.0296266E-2,9.098663E-2,-5.6336913E-2,5.827148E-2,6.415269E-2,-9.3529865E-2,-1.08691216E-1,-1.16120875E-2,-1.017421E-1,2.2288559E-2],"categories":[],"categories_nodes":[],"categories_segments":[],"categories_sizes":[],"default_left":[0,0,0,0,0,0,0,0,0,0,0,0,0],"id":57,"left_children":[1,3,-1,5,-1,7,-1,-1,9,-1,11,-1,-1],"loss_changes":[2.1938652E-1,2.218588E-1,0E0,1.5143117E-1,0E0,1.8411298E-1,0E0,0E0,3.271795E-1,0E0,3.7883624E-1,0E0,0E0],"parents":[2147483647,0,0,1,1,3,3,5,5,8,8,10,10],"right_children":[2,4,-1,6,-1,8,-1,-1,10,-1,12,-1,-1],"split_conditions":[4E0,1E0,9.755839E-2,6.5E1,9.098663E-2,1.2E1,5.827148E-2,6.415269E-2,2E0,-1.08691216E-1,2.6E1,-1.017421E-1,2.2288559E-2],"split_indices":[3,4,0,2,0,2,0,0,3,0,5,0,0],"split_type":[0,0,0,0,0,0,0,0,0,0,0,0,0],"sum_hessian":[2.0262177E1,1.8572311E1,1.6898643E0,1.7169823E1,1.402489E0,1.5331596E1,1.8382263E0,1.2804611E0,1.4051135E1,2.4826677E0,1.1568467E1,1.7912891E0,9.777179E0],"tree_param":{"num_deleted":"0","num_feature":"6","num_nodes":"13","size_leaf_vector":"1"}},{"base_weights":[-1.900602E-1,-1.1038329E-1,2.7595993E-2,4.805699E-2,-2.2122229E-2],"categories":[],"categories_nodes":[],"categories_segments":[],"categories_sizes":[],"default_left":[0,0,0,0,0],"id":58,"left_children":[1,-1,3,-1,-1],"loss_changes":[2.655195E-1,0E0,6.416753E-2,0E0,0E0],"parents":[2147483647,0,0,2,2],"right_children":[2,-1,4,-1,-1],"split_conditions":[5.7E1,-1.1038329E-1,4E1,4.805699E-2,-2.2122229E-2],"split_indices":[2,0,0,0,0],"split_type":[0,0,0,0,0],"sum_hessian":[5.5956016E0,2.699167E0,2.8964348E0,1.0031264E0,1.8933084E0],"tree_param":{"num_deleted":"0","num_feature":"6","num_nodes":"5","size_leaf_vector":"1"}},{"base_weights":[1.0080372E-3,4.3782197E-2,-9.097742E-2,-5.8387455E-2,7.587666E-2,8.348835E-2,1.7420478E-2,2.0414121E-1,-4.737279E-2,8.7226614E-2,8.656685E-3,-1.936654E-1,4.294436E-2,-1.2285544E-1,3.4598514E-2,8.597733E-2,-3.2144036E-2],"categories":[],"categories_nodes":[],"categories_segments":[],"categories_sizes":[],"default_left":[0,0,0,0,0,0,0,0,0,0,0,0,0,0,0,0,0],"id":59,"left_children":[1,3,-1,-1,5,-1,7,9,11,-1,-1,13,15,-1,-1,-1,-1],"loss_changes":[2.5812855E-1,1.4766271E-1,0E0,0E0,1.8479475E-1,0E0,1.7302871E-1,4.7280192E-2,1.5148757E-1,0E0,0E0,3.3520573E-1,3.0563977E-1,0E0,0E0,0E0,0E0],"parents":[2147483647,0,0,1,1,4,4,6,6,7,7,8,8,11,11,12,12],"right_children":[2,4,-1,-1,6,-1,8,10,12,-1,-1,14,16,-1,-1,-1,-1],"split_conditions":[1E0,1.2E1,-9.097742E-2,-5.8387455E-2,2E0,8.348835E-2,2.6E1,4.3E1,2.9E1,8.7226614E-2,8.656685E-3,3.6E1,3.7E1,-1.2285544E-1,3.4598514E-2,8.597733E-2,-3.2144036E-2],"split_indices":[1,2,0,0,3,0,5,2,5,0,0,2,2,0,0,0,0],"split_type":[0,0,0,0,0,0,0,0,0,0,0,0,0,0,0,0,0],"sum_hessian":[1.78134E1,1.6368412E1,1.444989E0,1.3412313E0,1.5027181E1,2.5245645E0,1.2502616E1,2.6667993E0,9.835816E0,1.3439562E0,1.3228432E0,3.3176768E0,6.51814E0,1.7616905E0,1.5559862E0,2.138009E0,4.380131E0],"tree_param":{"num_deleted":"0","num_feature":"6","num_nodes":"17","size_leaf_vector":"1"}},{"base_weights":[5.0109413E-2,1.29675865E-2,9.277933E-2,-2.4045425E-2,8.740128E-2,-5.7367314E-2,5.1507033E-2,3.3044804E-2,-1.6032457E-1,1.386366E-1,-1.8287961E-1,-2.4066606E-1,2.3484364E-2,-3.2188818E-2,7.941432E-2,-7.751195E-2,-7.903126E-3,-1.1712821E-1,-2.6079629E-2],"categories":[],"categories_nodes":[],"categories_segments":[],"categories_sizes":[],"default_left":[0,0,0,0,0,0,0,0,0,0,0,0,0,0,0,0,0,0,0],"id":60,"left_children":[1,3,-1,5,-1,7,-1,9,11,13,15,17,-1,-1,-1,-1,-1,-1,-1],"loss_changes":[1.9093272E-1,2.0027287E-1,0E0,1.2385991E-1,0E0,1.5131988E-1,0E0,2.3468763E-1,1.6271855E-1,2.3722768E-1,3.3922613E-2,1.0098311E-1,0E0,0E0,0E0,0E0,0E0,0E0,0E0],"parents":[2147483647,0,0,1,1,3,3,5,5,7,7,8,8,9,9,10,10,11,11],"right_children":[2,4,-1,6,-1,8,-1,10,12,14,16,18,-1,-1,-1,-1,-1,-1,-1],"split_conditions":[4E0,1E0,9.277933E-2,6.5E1,8.740128E-2,4.3E1,5.1507033E-2,3.7E1,6.4E1,2.6E1,5.3E1,5.2E1,2.3484364E-2,-3.2188818E-2,7.941432E-2,-7.751195E-2,-7.903126E-3,-1.1712821E-1,-2.6079629E-2],"split_indices":[3,4,0,2,0,2,0,5,5,5,5,2,0,0,0,0,0,0,0],"split_type":[0,0,0,0,0,0,0,0,0,0,0,0,0,0,0,0,0,0,0],"sum_hessian":[1.92528E1,1.7757807E1,1.4949927E0,1.648017E1,1.2776382E0,1.46868105E1,1.7933589E0,8.181369E0,6.5054417E0,5.7348433E0,2.4465253E0,4.860288E0,1.6451535E0,1.9940785E0,3.7407649E0,1.2116207E0,1.2349048E0,1.6820627E0,3.1782255E0],"tree_param":{"num_deleted":"0","num_feature":"6","num_nodes":"19","size_leaf_vector":"1"}},{"base_weights":[-1.6974351E-1,-1.0682189E-1,4.38908E-2,4.6598732E-2,-1.624638E-2],"categories":[],"categories_nodes":[],"categories_segments":[],"categories_sizes":[],"default_left":[0,0,0,0,0],"id":61,"left_children":[1,-1,3,-1,-1],"loss_changes":[2.5928915E-1,0E0,4.929582E-2,0E0,0E0],"parents":[2147483647,0,0,2,2],"right_children":[2,-1,4,-1,-1],"split_conditions":[6.1E1,-1.0682189E-1,4E1,4.6598732E-2,-1.624638E-2],"split_indices":[5,0,0,0,0],"split_type":[0,0,0,0,0],"sum_hessian":[5.1211524E0,2.3792539E0,2.7418988E0,1.0098487E0,1.7320501E0],"tree_param":{"num_deleted":"0","num_feature":"6","num_nodes":"5","size_leaf_vector":"1"}},{"base_weights":[1.349183E-3,4.092364E-2,-8.632075E-2,-4.918349E-2,6.909973E-2,7.426207E-2,2.0205298E-2,1.8020585E-1,-3.242598E-2,7.846068E-2,6.44973E-3,-1.6605371E-1,5.0543528E-2,-1.0792922E-1,3.390035E-2,9.8223366E-2,-1.9328125E-2],"categories":[],"categories_nodes":[],"categories_segments":[],"categories_sizes":[],"default_left":[0,0,0,0,0,0,0,0,0,0,0,0,0,0,0,0,0],"id":62,"left_children":[1,3,-1,-1,5,-1,7,9,11,-1,-1,13,15,-1,-1,-1,-1],"loss_changes":[2.1672457E-1,1.0734033E-1,0E0,0E0,1.2870874E-1,0E0,1.1631179E-1,3.8257092E-2,1.2723047E-1,0E0,0E0,2.7521354E-1,2.559926E-1,0E0,0E0,0E0,0E0],"parents":[2147483647,0,0,1,1,4,4,6,6,7,7,8,8,11,11,12,12],"right_children":[2,4,-1,-1,6,-1,8,10,12,-1,-1,14,16,-1,-1,-1,-1],"split_conditions":[1E0,1.2E1,-8.632075E-2,-4.918349E-2,2E0,7.426207E-2,2.6E1,4.3E1,2.9E1,7.846068E-2,6.44973E-3,3.6E1,3.5E1,-1.0792922E-1,3.390035E-2,9.8223366E-2,-1.9328125E-2],"split_indices":[1,2,0,0,3,0,5,2,5,0,0,2,5,0,0,0,0],"split_type":[0,0,0,0,0,0,0,0,0,0,0,0,0,0,0,0,0],"sum_hessian":[1.6914555E1,1.56329155E1,1.2816396E0,1.3074986E0,1.4325417E1,2.2072606E0,1.2118156E1,2.3995445E0,9.718612E0,1.1581368E0,1.2414076E0,3.339213E0,6.3793993E0,1.8002898E0,1.5389231E0,1.3296372E0,5.049762E0],"tree_param":{"num_deleted":"0","num_feature":"6","num_nodes":"17","size_leaf_vector":"1"}},{"base_weights":[4.2443525E-2,6.7821555E-3,8.920869E-2,7.5246975E-2,-1.2842809E-1,1.6220627E-2,2.2495745E-1,-2.5390106E-1,6.5417E-2,9.58994E-2,-8.186052E-2,-1.2572661E-2,1.07100956E-1,-1.0685074E-1,-7.6037616E-4,7.142937E-2,-3.515558E-2,7.104643E-2,-3.6272346E-3,-6.335133E-2,2.4089694E-2],"categories":[],"categories_nodes":[],"categories_segments":[],"categories_sizes":[],"default_left":[0,0,0,0,0,0,0,0,0,0,0,0,0,0,0,0,0,0,0,0,0],"id":63,"left_children":[1,3,-1,5,7,9,11,13,15,17,-1,-1,-1,-1,-1,-1,-1,-1,19,-1,-1],"loss_changes":[1.7538096E-1,1.7761214E-1,0E0,1.0835424E-1,1.7392674E-1,2.6038396E-1,1.3852152E-1,1.05300605E-1,1.3311358E-1,1.2303642E-1,0E0,0E0,0E0,0E0,0E0,0E0,0E0,0E0,1.2304008E-1,0E0,0E0],"parents":[2147483647,0,0,1,1,3,3,4,4,5,5,6,6,7,7,8,8,9,9,18,18],"right_children":[2,4,-1,6,8,10,12,14,16,18,-1,-1,-1,-1,-1,-1,-1,-1,20,-1,-1],"split_conditions":[8.8E1,4.5E1,8.920869E-2,3.5E1,6.3E1,2.9E1,2E0,8.6E1,8.5E1,2.4E1,-8.186052E-2,-1.2572661E-2,1.07100956E-1,-1.0685074E-1,-7.6037616E-4,7.142937E-2,-3.515558E-2,7.104643E-2,3.5E1,-6.335133E-2,2.4089694E-2],"split_indices":[5,5,0,5,5,5,3,0,0,2,0,0,0,0,0,0,0,0,2,0,0],"split_type":[0,0,0,0,0,0,0,0,0,0,0,0,0,0,0,0,0,0,0,0,0],"sum_hessian":[1.8514084E1,1.7142563E1,1.3715208E0,1.1674543E1,5.46802E0,9.16816E0,2.5063837E0,3.1313376E0,2.336682E0,7.7110963E0,1.4570638E0,1.0556064E0,1.4507772E0,1.9294231E0,1.2019145E0,1.0447661E0,1.291916E0,2.6207871E0,5.090309E0,1.0291467E0,4.0611625E0],"tree_param":{"num_deleted":"0","num_feature":"6","num_nodes":"21","size_leaf_vector":"1"}},{"base_weights":[-1.4882074E-1,-1.02960736E-1,6.0192402E-2,4.3599017E-2,-8.640104E-3],"categories":[],"categories_nodes":[],"categories_segments":[],"categories_sizes":[],"default_left":[0,0,0,0,0],"id":64,"left_children":[1,-1,3,-1,-1],"loss_changes":[2.540383E-1,0E0,3.1603463E-2,0E0,0E0],"parents":[2147483647,0,0,2,2],"right_children":[2,-1,4,-1,-1],"split_conditions":[1E0,-1.02960736E-1,6.2E1,4.3599017E-2,-8.640104E-3],"split_indices":[1,0,5,0,0],"split_type":[0,0,0,0,0],"sum_hessian":[4.74427E0,2.125524E0,2.6187458E0,1.0148262E0,1.6039196E0],"tree_param":{"num_deleted":"0","num_feature":"6","num_nodes":"5","size_leaf_vector":"1"}},{"base_weights":[1.5444048E-3,-8.2038976E-2,3.8923092E-2,7.0052296E-2,-5.2299026E-2,1.1291514E-2,2.4283347E-1,7.100293E-2,-3.5194535E-2,9.560291E-2,1.6780445E-2,-7.1122564E-2,5.1139064E-2,7.413981E-2,-2.9416753E-3],"categories":[],"categories_nodes":[],"categories_segments":[],"categories_sizes":[],"default_left":[0,0,0,0,0,0,0,0,0,0,0,0,0,0,0],"id":65,"left_children":[1,-1,3,5,-1,7,9,-1,11,-1,-1,-1,13,-1,-1],"loss_changes":[1.8780926E-1,0E0,1.1874585E-1,1.4667863E-1,0E0,1.3438223E-1,3.4426272E-2,0E0,2.0113303E-1,0E0,0E0,0E0,1.0298161E-1,0E0,0E0],"parents":[2147483647,0,0,2,2,3,3,5,5,6,6,8,8,12,12],"right_children":[2,-1,4,6,-1,8,10,-1,12,-1,-1,-1,14,-1,-1],"split_conditions":[6.6E1,-8.2038976E-2,6.4E1,4.5E1,-5.2299026E-2,7.5E1,8.6E1,7.100293E-2,7.8E1,9.560291E-2,1.6780445E-2,-7.1122564E-2,8.6E1,7.413981E-2,-2.9416753E-3],"split_indices":[0,0,5,5,0,0,0,0,0,0,0,0,0,0,0],"split_type":[0,0,0,0,0,0,0,0,0,0,0,0,0,0,0],"sum_hessian":[1.6234936E1,1.1868508E0,1.5048084E1,1.3717243E1,1.3308403E0,1.1031064E1,2.6861794E0,1.1865932E0,9.844471E0,1.4092389E0,1.2769405E0,2.4258583E0,7.418613E0,1.0350217E0,6.383591E0],"tree_param":{"num_deleted":"0","num_feature":"6","num_nodes":"15","size_leaf_vector":"1"}},{"base_weights":[3.537934E-2,2.5595244E-4,8.689166E-2,-3.4475323E-2,8.166592E-2,-6.849825E-2,5.0259355E-2,4.508718E-2,-1.4071871E-1,-9.990438E-2,5.8955073E-2,-1.0296063E-1,-5.6583658E-2,8.88981E-3,-6.904221E-2,3.669361E-2,-6.508364E-2],"categories":[],"categories_nodes":[],"categories_segments":[],"categories_sizes":[],"default_left":[0,0,0,0,0,0,0,0,0,0,0,0,0,0,0,0,0],"id":66,"left_children":[1,3,-1,5,-1,7,-1,9,11,13,-1,-1,15,-1,-1,-1,-1],"loss_changes":[1.6833122E-1,1.7534035E-1,0E0,1.2465407E-1,0E0,1.2778078E-1,0E0,1.6259502E-1,1.3888243E-1,7.412127E-2,0E0,0E0,2.492108E-1,0E0,0E0,0E0,0E0],"parents":[2147483647,0,0,1,1,3,3,5,5,7,7,8,8,9,9,12,12],"right_children":[2,4,-1,6,-1,8,-1,10,12,14,-1,-1,16,-1,-1,-1,-1],"split_conditions":[4E0,1E0,8.689166E-2,6.5E1,8.166592E-2,7.8E1,5.0259355E-2,7.5E1,2E0,5.6E1,5.8955073E-2,-1.0296063E-1,3E0,8.88981E-3,-6.904221E-2,3.669361E-2,-6.508364E-2],"split_indices":[3,4,0,2,0,0,0,0,3,2,0,0,3,0,0,0,0],"split_type":[0,0,0,0,0,0,0,0,0,0,0,0,0,0,0,0,0],"sum_hessian":[1.7857422E1,1.6569517E1,1.2879052E0,1.5467471E1,1.102046E0,1.3803525E1,1.6639462E0,5.511291E0,8.292234E0,2.989322E0,2.5219693E0,1.5302595E0,6.7619743E0,1.8859587E0,1.1033632E0,3.308437E0,3.4535375E0],"tree_param":{"num_deleted":"0","num_feature":"6","num_nodes":"17","size_leaf_vector":"1"}},{"base_weights":[-1.3652933E-1,-9.9888474E-2,6.658094E-2,3.756181E-2,-2.4051212E-3],"categories":[],"categories_nodes":[],"categories_segments":[],"categories_sizes":[],"default_left":[0,0,0,0,0],"id":67,"left_children":[1,-1,3,-1,-1],"loss_changes":[2.3936953E-1,0E0,1.6353473E-2,0E0,0E0],"parents":[2147483647,0,0,2,2],"right_children":[2,-1,4,-1,-1],"split_conditions":[6.1E1,-9.9888474E-2,7.5E1,3.756181E-2,-2.4051212E-3],"split_indices":[5,0,5,0,0],"split_type":[0,0,0,0,0],"sum_hessian":[4.4439793E0,1.9341283E0,2.5098507E0,1.0255114E0,1.4843394E0],"tree_param":{"num_deleted":"0","num_feature":"6","num_nodes":"5","size_leaf_vector":"1"}},{"base_weights":[4.583518E-3,4.041468E-2,-7.96062E-2,5.3557754E-3,6.935211E-2,-5.5590104E-2,3.4991615E-2,9.8264985E-2,-9.761329E-2,1.4409147E-2,9.777294E-2,5.128523E-3,-5.3015374E-2,6.447547E-2,-2.1647895E-2],"categories":[],"categories_nodes":[],"categories_segments":[],"categories_sizes":[],"default_left":[0,0,0,0,0,0,0,0,0,0,0,0,0,0,0],"id":68,"left_children":[1,3,-1,5,-1,-1,7,9,11,13,-1,-1,-1,-1,-1],"loss_changes":[1.713117E-1,1.0259174E-1,0E0,8.6370826E-2,0E0,0E0,1.1931875E-1,1.7382067E-1,4.5905273E-2,1.5229578E-1,0E0,0E0,0E0,0E0,0E0],"parents":[2147483647,0,0,1,1,3,3,6,6,7,7,8,8,9,9],"right_children":[2,4,-1,6,-1,-1,8,10,12,14,-1,-1,-1,-1,-1],"split_conditions":[1E0,8.7E1,-7.96062E-2,1.2E1,6.935211E-2,-5.5590104E-2,5.2E1,4.4E1,8.5E1,2.6E1,9.777294E-2,5.128523E-3,-5.3015374E-2,6.447547E-2,-2.1647895E-2],"split_indices":[1,0,0,2,0,0,2,2,0,5,0,0,0,0,0],"split_type":[0,0,0,0,0,0,0,0,0,0,0,0,0,0,0],"sum_hessian":[1.5603042E1,1.4525259E1,1.0777832E0,1.3138634E1,1.3866254E0,1.0609101E0,1.20777235E1,8.351643E0,3.726081E0,6.8804417E0,1.4712007E0,1.8407422E0,1.8853387E0,1.627719E0,5.2527227E0],"tree_param":{"num_deleted":"0","num_feature":"6","num_nodes":"15","size_leaf_vector":"1"}},{"base_weights":[3.1244008E-2,-2.2771824E-3,8.350605E-2,5.8563147E-2,-1.2387088E-1,-6.9667106E-3,1.9060268E-1,-2.3335055E-1,5.0324433E-2,8.178537E-2,-9.261697E-2,-2.3948026E-3,8.434373E-2,-9.719636E-2,-1.8827246E-3,4.0521935E-2,-1.9134596E-2,-1.37330545E-2,1.3458668E-1,-4.880703E-2,7.008766E-2],"categories":[],"categories_nodes":[],"categories_segments":[],"categories_sizes":[],"default_left":[0,0,0,0,0,0,0,0,0,0,0,0,0,0,0,0,0,0,0,0,0],"id":69,"left_children":[1,3,-1,5,7,9,11,13,15,17,-1,-1,-1,-1,-1,-1,-1,-1,19,-1,-1],"loss_changes":[1.5165514E-1,1.3335642E-1,0E0,1.0550618E-1,1.262767E-1,2.6658934E-1,7.468359E-2,7.752004E-2,3.8983986E-2,5.8387373E-2,0E0,0E0,0E0,0E0,0E0,0E0,0E0,0E0,2.0694037E-1,0E0,0E0],"parents":[2147483647,0,0,1,1,3,3,4,4,5,5,6,6,7,7,8,8,9,9,18,18],"right_children":[2,4,-1,6,8,10,12,14,16,18,-1,-1,-1,-1,-1,-1,-1,-1,20,-1,-1],"split_conditions":[8.8E1,4.5E1,8.350605E-2,5.2E1,6.3E1,4.4E1,3E0,8.6E1,7.6E1,2.6E1,-9.261697E-2,-2.3948026E-3,8.434373E-2,-9.719636E-2,-1.8827246E-3,4.0521935E-2,-1.9134596E-2,-1.37330545E-2,2E0,-4.880703E-2,7.008766E-2],"split_indices":[5,5,0,2,5,2,3,0,5,5,0,0,0,0,0,0,0,0,3,0,0],"split_type":[0,0,0,0,0,0,0,0,0,0,0,0,0,0,0,0,0,0,0,0,0],"sum_hessian":[1.723179E1,1.6045897E1,1.1858927E0,1.1040214E1,5.0056844E0,8.011451E0,3.0287628E0,2.8652916E0,2.1403928E0,6.7539577E0,1.2574929E0,1.2340326E0,1.7947301E0,1.7428432E0,1.1224484E0,1.1227564E0,1.0176363E0,2.0161629E0,4.737795E0,1.0233622E0,3.7144325E0],"tree_param":{"num_deleted":"0","num_feature":"6","num_nodes":"21","size_leaf_vector":"1"}},{"base_weights":[-1.2703754E-1,-9.613309E-2,6.585892E-2,3.3880018E-2,-4.3270743E-4],"categories":[],"categories_nodes":[],"categories_segments":[],"categories_sizes":[],"default_left":[0,0,0,0,0],"id":70,"left_children":[1,-1,3,-1,-1],"loss_changes":[2.1404733E-1,0E0,1.0994197E-2,0E0,0E0],"parents":[2147483647,0,0,2,2],"right_children":[2,-1,4,-1,-1],"split_conditions":[5.7E1,-9.613309E-2,4.6E1,3.3880018E-2,-4.3270743E-4],"split_indices":[2,0,0,0,0],"split_type":[0,0,0,0,0],"sum_hessian":[4.171722E0,1.7529349E0,2.418787E0,1.0243024E0,1.3944846E0],"tree_param":{"num_deleted":"0","num_feature":"6","num_nodes":"5","size_leaf_vector":"1"}},{"base_weights":[5.4506375E-3,-7.620755E-2,3.995818E-2,9.574471E-2,-8.392799E-2,2.3463326E-2,9.455277E-2,-1.6312632E-1,9.905367E-3,-6.779756E-2,5.821364E-2,2.2924372E-3,-7.260309E-2,3.049783E-2,-1.6064158E-1,7.6709716E-3,-7.850869E-2],"categories":[],"categories_nodes":[],"categories_segments":[],"categories_sizes":[],"default_left":[0,0,0,0,0,0,0,0,0,0,0,0,0,0,0,0,0],"id":71,"left_children":[1,-1,3,5,7,9,-1,11,-1,13,-1,-1,-1,-1,15,-1,-1],"loss_changes":[1.5367243E-1,0E0,1.1178386E-1,1.6418383E-1,5.349108E-2,1.5665321E-1,0E0,4.583203E-2,0E0,1.2246837E-1,0E0,0E0,0E0,0E0,9.599622E-2,0E0,0E0],"parents":[2147483647,0,0,2,2,3,3,4,4,5,5,7,7,9,9,14,14],"right_children":[2,-1,4,6,8,10,-1,12,-1,14,-1,-1,-1,-1,16,-1,-1],"split_conditions":[6.6E1,-7.620755E-2,5.2E1,4.4E1,5.8E1,3.7E1,9.455277E-2,3.4E1,9.905367E-3,2.6E1,5.821364E-2,2.2924372E-3,-7.260309E-2,3.049783E-2,8.4E1,7.6709716E-3,-7.850869E-2],"split_indices":[0,0,2,2,2,5,0,5,0,5,0,0,0,0,0,0,0],"split_type":[0,0,0,0,0,0,0,0,0,0,0,0,0,0,0,0,0],"sum_hessian":[1.5029048E1,1.0173973E0,1.4011651E1,9.817803E0,4.1938477E0,8.21777E0,1.6000334E0,2.265031E0,1.9288167E0,5.74615E0,2.4716196E0,1.0010631E0,1.263968E0,2.0002983E0,3.7458518E0,1.5804806E0,2.1653712E0],"tree_param":{"num_deleted":"0","num_feature":"6","num_nodes":"17","size_leaf_vector":"1"}},{"base_weights":[2.6752783E-2,-6.8691457E-3,8.249263E-2,-1.6549878E-1,3.84763E-2,2.7834517E-3,-8.442372E-2,-1.5128629E-2,8.954574E-2,5.8310315E-2,-1.7282353E-1,-1.8002935E-2,8.630025E-2,2.3395933E-2,-8.9776024E-2,4.4168137E-2,-4.3050975E-2],"categories":[],"categories_nodes":[],"categories_segments":[],"categories_sizes":[],"default_left":[0,0,0,0,0,0,0,0,0,0,0,0,0,0,0,0,0],"id":72,"left_children":[1,3,-1,5,7,-1,-1,9,-1,11,13,15,-1,-1,-1,-1,-1],"loss_changes":[1.4931132E-1,1.2529057E-1,0E0,8.0892384E-2,1.9502857E-1,0E0,0E0,1.5234014E-1,0E0,1.649606E-1,1.5510434E-1,1.8268168E-1,0E0,0E0,0E0,0E0,0E0],"parents":[2147483647,0,0,1,1,3,3,4,4,7,7,9,9,10,10,11,11],"right_children":[2,4,-1,6,8,-1,-1,10,-1,12,14,16,-1,-1,-1,-1,-1],"split_conditions":[1E0,2E0,8.249263E-2,3.6E1,6.5E1,2.7834517E-3,-8.442372E-2,4.3E1,8.954574E-2,3.5E1,3E0,3.6E1,8.630025E-2,2.3395933E-2,-8.9776024E-2,4.4168137E-2,-4.3050975E-2],"split_indices":[4,3,0,5,5,0,0,5,0,5,3,2,0,0,0,0,0],"split_type":[0,0,0,0,0,0,0,0,0,0,0,0,0,0,0,0,0],"sum_hessian":[1.6664433E1,1.5532827E1,1.1316055E0,2.8640246E0,1.2668802E1,1.5088722E0,1.3551525E0,1.1284206E1,1.3845965E0,8.128824E0,3.1553822E0,6.790838E0,1.3379861E0,1.1859244E0,1.9694576E0,2.8566864E0,3.9341514E0],"tree_param":{"num_deleted":"0","num_feature":"6","num_nodes":"17","size_leaf_vector":"1"}},{"base_weights":[-1.1837001E-1,-9.279063E-2,6.328905E-2,3.0667415E-2,1.0531374E-3],"categories":[],"categories_nodes":[],"categories_segments":[],"categories_sizes":[],"default_left":[0,0,0,0,0],"id":73,"left_children":[1,-1,3,-1,-1],"loss_changes":[1.9132069E-1,0E0,7.4792365E-3,0E0,0E0],"parents":[2147483647,0,0,2,2],"right_children":[2,-1,4,-1,-1],"split_conditions":[6.1E1,-9.279063E-2,7.8E1,3.0667415E-2,1.0531374E-3],"split_indices":[5,0,5,0,0],"split_type":[0,0,0,0,0],"sum_hessian":[3.951636E0,1.5840619E0,2.3675742E0,1.0037469E0,1.3638275E0],"tree_param":{"num_deleted":"0","num_feature":"6","num_nodes":"5","size_leaf_vector":"1"}},{"base_weights":[7.326438E-3,-6.508091E-2,3.914431E-2,6.773639E-2,-4.5805253E-2,7.752679E-2,2.8178621E-2,-1.5681209E-2,7.66311E-2,-1.045574E-1,8.869738E-2,-6.581665E-2,2.0119986E-2,8.353247E-2,-2.089913E-2],"categories":[],"categories_nodes":[],"categories_segments":[],"categories_sizes":[],"default_left":[0,0,0,0,0,0,0,0,0,0,0,0,0,0,0],"id":74,"left_children":[1,-1,3,5,-1,-1,7,9,-1,11,13,-1,-1,-1,-1],"loss_changes":[1.190854E-1,0E0,8.9434534E-2,9.260763E-2,0E0,0E0,1.245098E-1,1.12024084E-1,0E0,1.4165662E-1,1.8871292E-1,0E0,0E0,0E0,0E0],"parents":[2147483647,0,0,2,2,3,3,6,6,7,7,9,9,10,10],"right_children":[2,-1,4,6,-1,-1,8,10,-1,12,14,-1,-1,-1,-1],"split_conditions":[6.7E1,-6.508091E-2,6.4E1,7.5E1,-4.5805253E-2,7.752679E-2,8.7E1,2.9E1,7.66311E-2,3.6E1,3.8E1,-6.581665E-2,2.0119986E-2,8.353247E-2,-2.089913E-2],"split_indices":[0,0,5,0,0,0,0,5,0,2,2,0,0,0,0],"split_type":[0,0,0,0,0,0,0,0,0,0,0,0,0,0,0],"sum_hessian":[1.4498922E1,1.0785912E0,1.3420331E1,1.2242477E1,1.1778532E0,1.1527779E0,1.10897E1,1.0076064E1,1.0136361E0,5.4412446E0,4.6348195E0,3.0932682E0,2.3479764E0,1.763532E0,2.8712873E0],"tree_param":{"num_deleted":"0","num_feature":"6","num_nodes":"15","size_leaf_vector":"1"}},{"base_weights":[2.4197744E-2,-1.0047201E-2,8.131928E-2,-4.2612392E-2,5.1732305E-2,4.821138E-2,-7.143618E-2,-8.495163E-2,-1.1598542E-2,-6.807116E-2,5.2126948E-2,-1.2501922E-3,7.851383E-2],"categories":[],"categories_nodes":[],"categories_segments":[],"categories_sizes":[],"default_left":[0,0,0,0,0,0,0,0,0,0,0,0,0],"id":75,"left_children":[1,3,-1,5,-1,-1,7,-1,9,-1,11,-1,-1],"loss_changes":[1.4665973E-1,1.0193387E-1,0E0,9.532918E-2,0E0,0E0,1.6425517E-1,0E0,1.6759089E-1,0E0,1.1403848E-1,0E0,0E0],"parents":[2147483647,0,0,1,1,3,3,6,6,8,8,10,10],"right_children":[2,4,-1,6,-1,-1,8,-1,10,-1,12,-1,-1],"split_conditions":[4E0,6.5E1,8.131928E-2,1.2E1,5.1732305E-2,4.821138E-2,2.6E1,-8.495163E-2,2E0,-6.807116E-2,6.5E1,-1.2501922E-3,7.851383E-2],"split_indices":[3,2,0,2,0,0,5,0,3,0,5,0,0],"split_type":[0,0,0,0,0,0,0,0,0,0,0,0,0],"sum_hessian":[1.602596E1,1.49161215E1,1.1098405E0,1.330782E1,1.6083008E0,1.08426E0,1.222356E1,1.8709277E0,1.03526325E1,1.7795464E0,8.573086E0,7.5305223E0,1.042564E0],"tree_param":{"num_deleted":"0","num_feature":"6","num_nodes":"13","size_leaf_vector":"1"}},{"base_weights":[-1.1037171E-1,-8.891208E-2,6.0400795E-2,2.570386E-2,3.5246902E-3],"categories":[],"categories_nodes":[],"categories_segments":[],"categories_sizes":[],"default_left":[0,0,0,0,0],"id":76,"left_children":[1,-1,3,-1,-1],"loss_changes":[1.6763619E-1,0E0,3.0374983E-3,0E0,0E0],"parents":[2147483647,0,0,2,2],"right_children":[2,-1,4,-1,-1],"split_conditions":[6.1E1,-8.891208E-2,7.9E1,2.570386E-2,3.5246902E-3],"split_indices":[5,0,5,0,0],"split_type":[0,0,0,0,0],"sum_hessian":[3.7139823E0,1.425677E0,2.2883055E0,1.0050316E0,1.2832738E0],"tree_param":{"num_deleted":"0","num_feature":"6","num_nodes":"5","size_leaf_vector":"1"}},{"base_weights":[7.254438E-3,6.882588E-2,-1.1627053E-1,1.3510742E-2,7.279311E-2,3.0966068E-3,-1.5543044E-1,-5.0929748E-2,1.4001274E-1,-1.1703984E-2,-6.612429E-2,7.8201525E-2,-1.2318791E-1,5.132286E-2,1.2916537E-2,-1.2814252E-2,4.8627574E-2,1.4459575E-2,-7.120768E-2,7.34531E-3,-7.5157214E-4],"categories":[],"categories_nodes":[],"categories_segments":[],"categories_sizes":[],"default_left":[0,0,0,0,0,0,0,0,0,0,0,0,0,0,0,0,0,0,0,0,0],"id":77,"left_children":[1,3,5,7,-1,-1,9,11,13,-1,-1,15,17,-1,-1,-1,-1,19,-1,-1,-1],"loss_changes":[1.215459E-1,9.855198E-2,2.8066061E-2,8.125737E-2,0E0,0E0,2.271375E-2,7.26877E-2,2.680473E-3,0E0,0E0,3.7723072E-2,7.762944E-2,0E0,0E0,0E0,0E0,5.856891E-4,0E0,0E0,0E0],"parents":[2147483647,0,0,1,1,2,2,3,3,6,6,7,7,8,8,11,11,12,12,17,17],"right_children":[2,4,6,8,-1,-1,10,12,14,-1,-1,16,18,-1,-1,-1,-1,20,-1,-1,-1],"split_conditions":[5.2E1,4.4E1,7.6E1,3.7E1,7.279311E-2,3.0966068E-3,3.7E1,2.6E1,5.3E1,-1.1703984E-2,-6.612429E-2,3E0,3.1E1,5.132286E-2,1.2916537E-2,-1.2814252E-2,4.8627574E-2,1.7E1,-7.120768E-2,7.34531E-3,-7.5157214E-4],"split_indices":[2,2,0,5,0,0,5,5,5,0,0,3,2,0,0,0,0,2,0,0,0],"split_type":[0,0,0,0,0,0,0,0,0,0,0,0,0,0,0,0,0,0,0,0,0],"sum_hessian":[1.3928913E1,9.5910425E0,4.33787E0,8.093217E0,1.4978259E0,1.1988266E0,3.1390433E0,5.757652E0,2.335565E0,1.697809E0,1.4412344E0,2.036323E0,3.7213287E0,1.1899002E0,1.1456649E0,1.0351458E0,1.0011774E0,2.0831642E0,1.6381645E0,1.0308021E0,1.0523621E0],"tree_param":{"num_deleted":"0","num_feature":"6","num_nodes":"21","size_leaf_vector":"1"}},{"base_weights":[2.3053508E-2,-1.0040164E-2,7.934868E-2,-1.5520102E-1,3.2351974E-2,5.0759185E-3,-7.3301144E-2,-1.6039051E-2,8.30484E-2,5.6000605E-2,-1.704618E-1,-1.3891739E-2,7.828254E-2,1.956635E-2,-8.511604E-2,1.833752E-2,-6.873952E-2],"categories":[],"categories_nodes":[],"categories_segments":[],"categories_sizes":[],"default_left":[0,0,0,0,0,0,0,0,0,0,0,0,0,0,0,0,0],"id":78,"left_children":[1,3,-1,5,7,-1,-1,9,-1,11,13,15,-1,-1,-1,-1,-1],"loss_changes":[1.3499649E-1,1.0058622E-1,0E0,6.0633965E-2,1.5642712E-1,0E0,0E0,1.3936505E-1,0E0,1.28387E-1,1.2419526E-1,1.3420936E-1,0E0,0E0,0E0,0E0,0E0],"parents":[2147483647,0,0,1,1,3,3,4,4,7,7,9,9,10,10,11,11],"right_children":[2,4,-1,6,8,-1,-1,10,-1,12,14,16,-1,-1,-1,-1,-1],"split_conditions":[1E0,2E0,7.934868E-2,7.7E1,6.5E1,5.0759185E-3,-7.3301144E-2,4.3E1,8.30484E-2,3.5E1,3E0,2.9E1,7.828254E-2,1.956635E-2,-8.511604E-2,1.833752E-2,-6.873952E-2],"split_indices":[4,3,0,0,5,0,0,5,0,5,3,5,0,0,0,0,0],"split_type":[0,0,0,0,0,0,0,0,0,0,0,0,0,0,0,0,0],"sum_hessian":[1.5562892E1,1.4529761E1,1.0331306E0,2.6826487E0,1.1847113E1,1.1916906E0,1.4909582E0,1.0669592E1,1.1775206E0,7.7101088E0,2.9594827E0,6.4445133E0,1.2655956E0,1.0982457E0,1.861237E0,5.3098907E0,1.1346225E0],"tree_param":{"num_deleted":"0","num_feature":"6","num_nodes":"17","size_leaf_vector":"1"}},{"base_weights":[-9.879448E-2,-8.58684E-2,2.0532623E-2],"categories":[],"categories_nodes":[],"categories_segments":[],"categories_sizes":[],"default_left":[0,0,0],"id":79,"left_children":[1,-1,-1],"loss_changes":[1.6107397E-1,0E0,0E0],"parents":[2147483647,0,0],"right_children":[2,-1,-1],"split_conditions":[5.7E1,-8.58684E-2,2.0532623E-2],"split_indices":[2,0,0],"split_type":[0,0,0],"sum_hessian":[3.513658E0,1.3212862E0,2.1923718E0],"tree_param":{"num_deleted":"0","num_feature":"6","num_nodes":"3","size_leaf_vector":"1"}},{"base_weights":[4.4075735E-3,6.0975023E-2,-1.07963644E-1,8.263062E-3,6.841561E-2,4.198346E-3,-1.4687724E-1,-5.4196183E-2,3.955522E-2,-1.2511525E-2,-6.0304716E-2,1.848219E-2,-1.1461611E-1,1.1414272E-2,-6.5203436E-2,6.3635646E-3,-1.136669E-3],"categories":[],"categories_nodes":[],"categories_segments":[],"categories_sizes":[],"default_left":[0,0,0,0,0,0,0,0,0,0,0,0,0,0,0,0,0],"id":80,"left_children":[1,3,5,7,-1,-1,9,11,-1,-1,-1,-1,13,15,-1,-1,-1],"loss_changes":[9.901514E-2,8.892684E-2,2.6875764E-2,7.566093E-2,0E0,0E0,1.46871805E-2,5.3274103E-2,0E0,0E0,0E0,0E0,6.320059E-2,5.356037E-4,0E0,0E0,0E0],"parents":[2147483647,0,0,1,1,2,2,3,3,6,6,7,7,12,12,13,13],"right_children":[2,4,6,8,-1,-1,10,12,-1,-1,-1,-1,14,16,-1,-1,-1],"split_conditions":[5.2E1,4.4E1,7.6E1,3.7E1,6.841561E-2,4.198346E-3,3.7E1,2.6E1,3.955522E-2,-1.2511525E-2,-6.0304716E-2,1.848219E-2,3.1E1,1.7E1,-6.5203436E-2,6.3635646E-3,-1.136669E-3],"split_indices":[2,2,0,5,0,0,5,5,0,0,0,0,2,2,0,0,0],"split_type":[0,0,0,0,0,0,0,0,0,0,0,0,0,0,0,0,0],"sum_hessian":[1.3541224E1,9.311308E0,4.2299156E0,7.8759437E0,1.4353642E0,1.1780838E0,3.0518317E0,5.6048284E0,2.2711153E0,1.638717E0,1.4131148E0,1.9149326E0,3.6898956E0,2.0561917E0,1.633704E0,1.0100453E0,1.0461464E0],"tree_param":{"num_deleted":"0","num_feature":"6","num_nodes":"17","size_leaf_vector":"1"}},{"base_weights":[2.1691248E-2,-1.1690872E-2,7.820377E-2,-4.1479588E-2,4.5888226E-2,4.6701647E-2,-7.0133306E-2,-8.022875E-2,-1.3852473E-2,-6.0220834E-2,4.317875E-2,-3.5707266E-3,5.9370425E-2],"categories":[],"categories_nodes":[],"categories_segments":[],"categories_sizes":[],"default_left":[0,0,0,0,0,0,0,0,0,0,0,0,0],"id":81,"left_children":[1,3,-1,5,-1,-1,7,-1,9,-1,11,-1,-1],"loss_changes":[1.3192157E-1,8.0559E-2,0E0,8.774384E-2,0E0,0E0,1.35798E-1,0E0,1.24090835E-1,0E0,8.008222E-2,0E0,0E0],"parents":[2147483647,0,0,1,1,3,3,6,6,8,8,10,10],"right_children":[2,4,-1,6,-1,-1,8,-1,10,-1,12,-1,-1],"split_conditions":[4E0,6.5E1,7.820377E-2,1.2E1,4.5888226E-2,4.6701647E-2,2.6E1,-8.022875E-2,2E0,-6.0220834E-2,6.2E1,-3.5707266E-3,5.9370425E-2],"split_indices":[3,2,0,2,0,0,5,0,3,0,5,0,0],"split_type":[0,0,0,0,0,0,0,0,0,0,0,0,0],"sum_hessian":[1.5153828E1,1.4131065E1,1.022762E0,1.2599623E1,1.531443E0,1.0363238E0,1.1563298E1,1.7337701E0,9.829529E0,1.7091419E0,8.120386E0,6.669221E0,1.4511657E0],"tree_param":{"num_deleted":"0","num_feature":"6","num_nodes":"13","size_leaf_vector":"1"}},{"base_weights":[-9.519637E-2,-8.3286054E-2,1.974908E-2],"categories":[],"categories_nodes":[],"categories_segments":[],"categories_sizes":[],"default_left":[0,0,0],"id":82,"left_children":[1,-1,-1],"loss_changes":[1.4571467E-1,0E0,0E0],"parents":[2147483647,0,0],"right_children":[2,-1,-1],"split_conditions":[6.1E1,-8.3286054E-2,1.974908E-2],"split_indices":[5,0,0],"split_type":[0,0,0],"sum_hessian":[3.3383307E0,1.2256985E0,2.1126325E0],"tree_param":{"num_deleted":"0","num_feature":"6","num_nodes":"3","size_leaf_vector":"1"}},{"base_weights":[4.40332E-3,-5.9234135E-2,3.4790065E-2,6.223801E-2,1.6134195E-3,-3.626363E-2,6.041648E-2,-1.023041E-1,3.908023E-2,3.455923E-2,-1.93392E-1,6.879329E-2,-1.0581394E-1,-5.987193E-3,2.0724656E-2,-8.0484934E-2,2.2939723E-3,1.168085E-2,-5.1772688E-2],"categories":[],"categories_nodes":[],"categories_segments":[],"categories_sizes":[],"default_left":[0,0,0,0,0,0,0,0,0,0,0,0,0,0,0,0,0,0,0],"id":83,"left_children":[1,-1,3,-1,5,7,-1,9,11,13,15,-1,17,-1,-1,-1,-1,-1,-1],"loss_changes":[9.4062306E-2,0E0,7.531653E-2,0E0,9.875103E-2,5.8763802E-2,0E0,8.32509E-2,1.8591583E-1,7.594465E-3,5.985427E-2,0E0,4.5503195E-2,0E0,0E0,0E0,0E0,0E0,0E0],"parents":[2147483647,0,0,2,2,4,4,5,5,7,7,8,8,9,9,10,10,12,12],"right_children":[2,-1,4,-1,6,8,-1,10,12,14,16,-1,18,-1,-1,-1,-1,-1,-1],"split_conditions":[6.8E1,-5.9234135E-2,7.5E1,6.223801E-2,8.7E1,2.9E1,6.041648E-2,2.6E1,3.8E1,3.5E1,3.6E1,6.879329E-2,8.6E1,-5.987193E-3,2.0724656E-2,-8.0484934E-2,2.2939723E-3,1.168085E-2,-5.1772688E-2],"split_indices":[0,0,0,0,0,5,0,5,2,2,2,0,0,0,0,0,0,0,0],"split_type":[0,0,0,0,0,0,0,0,0,0,0,0,0,0,0,0,0,0,0],"sum_hessian":[1.3215702E1,1.0098376E0,1.2205865E1,1.1205736E0,1.1085291E1,1.0006541E1,1.0787497E0,5.1418085E0,4.8647327E0,2.3026204E0,2.839188E0,1.851413E0,3.0133197E0,1.0563729E0,1.2462476E0,1.8248918E0,1.0142963E0,1.0826811E0,1.9306386E0],"tree_param":{"num_deleted":"0","num_feature":"6","num_nodes":"19","size_leaf_vector":"1"}},{"base_weights":[2.0710435E-2,-1.3032052E-2,1.6323538E-1,4.4282276E-2,-1.6485536E-1,7.682005E-2,-2.3604792E-3,-2.0199593E-2,1.7479576E-1,1.0712117E-2,-7.898481E-2,4.872123E-2,-7.512207E-2,-1.0954834E-3,7.3540755E-2,-2.5583837E-2,1.09631576E-1,-3.943503E-2,4.2666435E-2,6.581598E-2,-2.9112024E-2],"categories":[],"categories_nodes":[],"categories_segments":[],"categories_sizes":[],"default_left":[0,0,0,0,0,0,0,0,0,0,0,0,0,0,0,0,0,0,0,0,0],"id":84,"left_children":[1,3,5,7,9,-1,-1,11,13,-1,-1,15,-1,-1,-1,17,19,-1,-1,-1,-1],"loss_changes":[7.727361E-2,1.2529962E-1,5.0700687E-2,9.301178E-2,8.6943455E-2,0E0,0E0,1.3933417E-1,4.6328448E-2,0E0,0E0,3.4503818E-2,0E0,0E0,0E0,8.914721E-2,1.1288509E-1,0E0,0E0,0E0,0E0],"parents":[2147483647,0,0,1,1,2,2,3,3,4,4,7,7,8,8,11,11,15,15,16,16],"right_children":[2,4,6,8,10,-1,-1,12,14,-1,-1,16,-1,-1,-1,18,20,-1,-1,-1,-1],"split_conditions":[6.5E1,4.5E1,8E1,5.2E1,3E0,7.682005E-2,-2.3604792E-3,4.4E1,3E0,1.0712117E-2,-7.898481E-2,8.6E1,-7.512207E-2,-1.0954834E-3,7.3540755E-2,3.5E1,3E0,-3.943503E-2,4.2666435E-2,6.581598E-2,-2.9112024E-2],"split_indices":[5,5,0,2,3,0,0,2,3,0,0,0,0,0,0,2,3,0,0,0,0],"split_type":[0,0,0,0,0,0,0,0,0,0,0,0,0,0,0,0,0,0,0,0,0],"sum_hessian":[1.4625709E1,1.256058E1,2.0651283E0,9.632556E0,2.9280245E0,1.0168705E0,1.0482577E0,7.012948E0,2.6196074E0,1.1736786E0,1.754346E0,6.003842E0,1.0091065E0,1.0086997E0,1.6109078E0,2.9658053E0,3.0380366E0,1.9513648E0,1.0144404E0,1.9440875E0,1.0939491E0],"tree_param":{"num_deleted":"0","num_feature":"6","num_nodes":"21","size_leaf_vector":"1"}},